digraph Tree {
node [shape=box, style="filled, rounded", color="black", fontname=helvetica] ;
edge [fontname=helvetica] ;
0 [label="30's_sales_rate <= 0.11\nentropy = 1.8\nsamples = 13943\nvalue = [9564, 1650, 1951, 718, 8199]\nclass = c", fillcolor="#fcf3ec"] ;
1 [label="60's_sales_rate <= 0.02\nentropy = 1.57\nsamples = 8434\nvalue = [3657, 0, 1624, 655, 7410]\nclass = t", fillcolor="#f5b2e7"] ;
0 -> 1 [labeldistance=2.5, labelangle=45, headlabel="True"] ;
2 [label="20's_sales_rate <= -0.28\nentropy = 1.77\nsamples = 4218\nvalue = [3226, 0, 1498, 600, 1383]\nclass = c", fillcolor="#f6d5bd"] ;
1 -> 2 ;
3 [label="40's_sales_rate <= 1.35\nentropy = 1.33\nsamples = 1686\nvalue = [84, 0, 1413, 86, 1099]\nclass = u", fillcolor="#d8faf3"] ;
2 -> 3 ;
4 [label="50's_sales_rate <= 0.13\nentropy = 0.98\nsamples = 854\nvalue = [84, 0, 87, 78, 1099]\nclass = t", fillcolor="#ea60cc"] ;
3 -> 4 ;
5 [label="60's_sales_rate <= -0.39\nentropy = 1.78\nsamples = 101\nvalue = [58, 0, 63, 32, 11]\nclass = u", fillcolor="#f6fefc"] ;
4 -> 5 ;
6 [label="20's_sales_rate <= -0.76\nentropy = 1.45\nsamples = 38\nvalue = [9, 0, 27, 27, 0]\nclass = u", fillcolor="#ffffff"] ;
5 -> 6 ;
7 [label="entropy = 0.0\nsamples = 7\nvalue = [0, 0, 0, 13, 0]\nclass = s", fillcolor="#3c39e5"] ;
6 -> 7 ;
8 [label="20's_sales_rate <= -0.34\nentropy = 1.44\nsamples = 31\nvalue = [9, 0, 27, 14, 0]\nclass = u", fillcolor="#b8f6ea"] ;
6 -> 8 ;
9 [label="40's_sales_rate <= 0.97\nentropy = 1.35\nsamples = 27\nvalue = [6, 0, 27, 13, 0]\nclass = u", fillcolor="#abf4e6"] ;
8 -> 9 ;
10 [label="30's_sales_rate <= -0.17\nentropy = 0.87\nsamples = 13\nvalue = [5, 0, 0, 12, 0]\nclass = s", fillcolor="#8d8bf0"] ;
9 -> 10 ;
11 [label="entropy = 0.0\nsamples = 7\nvalue = [0, 0, 0, 11, 0]\nclass = s", fillcolor="#3c39e5"] ;
10 -> 11 ;
12 [label="10's_sales_rate <= 3.49\nentropy = 0.65\nsamples = 6\nvalue = [5, 0, 0, 1, 0]\nclass = c", fillcolor="#ea9a61"] ;
10 -> 12 ;
13 [label="entropy = 0.0\nsamples = 5\nvalue = [5, 0, 0, 0, 0]\nclass = c", fillcolor="#e58139"] ;
12 -> 13 ;
14 [label="entropy = 0.0\nsamples = 1\nvalue = [0, 0, 0, 1, 0]\nclass = s", fillcolor="#3c39e5"] ;
12 -> 14 ;
15 [label="simillar_store_number <= 0.11\nentropy = 0.43\nsamples = 14\nvalue = [1, 0, 27, 1, 0]\nclass = u", fillcolor="#47e7c9"] ;
9 -> 15 ;
16 [label="30's_sales_rate <= -0.23\nentropy = 0.27\nsamples = 10\nvalue = [1, 0, 21, 0, 0]\nclass = u", fillcolor="#42e6c8"] ;
15 -> 16 ;
17 [label="60's_sales_rate <= -0.45\nentropy = 0.81\nsamples = 2\nvalue = [1, 0, 3, 0, 0]\nclass = u", fillcolor="#7beed8"] ;
16 -> 17 ;
18 [label="entropy = 0.0\nsamples = 1\nvalue = [1, 0, 0, 0, 0]\nclass = c", fillcolor="#e58139"] ;
17 -> 18 ;
19 [label="entropy = 0.0\nsamples = 1\nvalue = [0, 0, 3, 0, 0]\nclass = u", fillcolor="#39e5c5"] ;
17 -> 19 ;
20 [label="entropy = 0.0\nsamples = 8\nvalue = [0, 0, 18, 0, 0]\nclass = u", fillcolor="#39e5c5"] ;
16 -> 20 ;
21 [label="10's_sales_rate <= 2.03\nentropy = 0.59\nsamples = 4\nvalue = [0, 0, 6, 1, 0]\nclass = u", fillcolor="#5ae9cf"] ;
15 -> 21 ;
22 [label="entropy = 0.0\nsamples = 3\nvalue = [0, 0, 6, 0, 0]\nclass = u", fillcolor="#39e5c5"] ;
21 -> 22 ;
23 [label="entropy = 0.0\nsamples = 1\nvalue = [0, 0, 0, 1, 0]\nclass = s", fillcolor="#3c39e5"] ;
21 -> 23 ;
24 [label="50's_sales_rate <= 0.03\nentropy = 0.81\nsamples = 4\nvalue = [3, 0, 0, 1, 0]\nclass = c", fillcolor="#eeab7b"] ;
8 -> 24 ;
25 [label="entropy = 0.0\nsamples = 3\nvalue = [3, 0, 0, 0, 0]\nclass = c", fillcolor="#e58139"] ;
24 -> 25 ;
26 [label="entropy = 0.0\nsamples = 1\nvalue = [0, 0, 0, 1, 0]\nclass = s", fillcolor="#3c39e5"] ;
24 -> 26 ;
27 [label="30's_sales_rate <= -0.41\nentropy = 1.6\nsamples = 63\nvalue = [49, 0, 36, 5, 11]\nclass = c", fillcolor="#fae6d7"] ;
5 -> 27 ;
28 [label="10's_sales_rate <= 1.32\nentropy = 0.92\nsamples = 7\nvalue = [0, 0, 8, 4, 0]\nclass = u", fillcolor="#9cf2e2"] ;
27 -> 28 ;
29 [label="entropy = 0.0\nsamples = 4\nvalue = [0, 0, 8, 0, 0]\nclass = u", fillcolor="#39e5c5"] ;
28 -> 29 ;
30 [label="entropy = 0.0\nsamples = 3\nvalue = [0, 0, 0, 4, 0]\nclass = s", fillcolor="#3c39e5"] ;
28 -> 30 ;
31 [label="40's_sales_rate <= 1.02\nentropy = 1.44\nsamples = 56\nvalue = [49, 0, 28, 1, 11]\nclass = c", fillcolor="#f6d4bb"] ;
27 -> 31 ;
32 [label="20's_sales_rate <= -0.51\nentropy = 0.8\nsamples = 39\nvalue = [49, 0, 0, 1, 11]\nclass = c", fillcolor="#eb9f69"] ;
31 -> 32 ;
33 [label="30's_sales_rate <= -0.15\nentropy = 0.65\nsamples = 5\nvalue = [0, 0, 0, 1, 5]\nclass = t", fillcolor="#ea61cd"] ;
32 -> 33 ;
34 [label="entropy = 0.0\nsamples = 1\nvalue = [0, 0, 0, 1, 0]\nclass = s", fillcolor="#3c39e5"] ;
33 -> 34 ;
35 [label="entropy = 0.0\nsamples = 4\nvalue = [0, 0, 0, 0, 5]\nclass = t", fillcolor="#e539c0"] ;
33 -> 35 ;
36 [label="40's_sales_rate <= 0.92\nentropy = 0.5\nsamples = 34\nvalue = [49, 0, 0, 0, 6]\nclass = c", fillcolor="#e89051"] ;
32 -> 36 ;
37 [label="20's_sales_rate <= -0.45\nentropy = 0.33\nsamples = 32\nvalue = [47, 0, 0, 0, 3]\nclass = c", fillcolor="#e78946"] ;
36 -> 37 ;
38 [label="40's_sales_rate <= 0.54\nentropy = 0.88\nsamples = 5\nvalue = [7, 0, 0, 0, 3]\nclass = c", fillcolor="#f0b78e"] ;
37 -> 38 ;
39 [label="entropy = 0.0\nsamples = 2\nvalue = [0, 0, 0, 0, 3]\nclass = t", fillcolor="#e539c0"] ;
38 -> 39 ;
40 [label="entropy = 0.0\nsamples = 3\nvalue = [7, 0, 0, 0, 0]\nclass = c", fillcolor="#e58139"] ;
38 -> 40 ;
41 [label="entropy = 0.0\nsamples = 27\nvalue = [40, 0, 0, 0, 0]\nclass = c", fillcolor="#e58139"] ;
37 -> 41 ;
42 [label="50's_sales_rate <= -0.28\nentropy = 0.97\nsamples = 2\nvalue = [2, 0, 0, 0, 3]\nclass = t", fillcolor="#f6bdea"] ;
36 -> 42 ;
43 [label="entropy = 0.0\nsamples = 1\nvalue = [2, 0, 0, 0, 0]\nclass = c", fillcolor="#e58139"] ;
42 -> 43 ;
44 [label="entropy = 0.0\nsamples = 1\nvalue = [0, 0, 0, 0, 3]\nclass = t", fillcolor="#e539c0"] ;
42 -> 44 ;
45 [label="entropy = 0.0\nsamples = 17\nvalue = [0, 0, 28, 0, 0]\nclass = u", fillcolor="#39e5c5"] ;
31 -> 45 ;
46 [label="40's_sales_rate <= 1.05\nentropy = 0.53\nsamples = 753\nvalue = [26, 0, 24, 46, 1088]\nclass = t", fillcolor="#e74ac5"] ;
4 -> 46 ;
47 [label="50's_sales_rate <= 0.43\nentropy = 0.42\nsamples = 671\nvalue = [26, 0, 0, 46, 983]\nclass = t", fillcolor="#e747c4"] ;
46 -> 47 ;
48 [label="60's_sales_rate <= -0.32\nentropy = 0.98\nsamples = 68\nvalue = [25, 0, 0, 4, 81]\nclass = t", fillcolor="#ee7dd5"] ;
47 -> 48 ;
49 [label="20's_sales_rate <= -0.44\nentropy = 1.03\nsamples = 20\nvalue = [23, 0, 0, 2, 6]\nclass = c", fillcolor="#eda978"] ;
48 -> 49 ;
50 [label="30's_sales_rate <= -0.46\nentropy = 1.44\nsamples = 9\nvalue = [3, 0, 0, 2, 6]\nclass = t", fillcolor="#f5b5e7"] ;
49 -> 50 ;
51 [label="entropy = 0.0\nsamples = 2\nvalue = [0, 0, 0, 2, 0]\nclass = s", fillcolor="#3c39e5"] ;
50 -> 51 ;
52 [label="50's_sales_rate <= 0.42\nentropy = 0.92\nsamples = 7\nvalue = [3, 0, 0, 0, 6]\nclass = t", fillcolor="#f29ce0"] ;
50 -> 52 ;
53 [label="20's_sales_rate <= -0.64\nentropy = 0.81\nsamples = 6\nvalue = [2, 0, 0, 0, 6]\nclass = t", fillcolor="#ee7bd5"] ;
52 -> 53 ;
54 [label="entropy = 0.0\nsamples = 1\nvalue = [0, 0, 0, 0, 3]\nclass = t", fillcolor="#e539c0"] ;
53 -> 54 ;
55 [label="entropy = 0.97\nsamples = 5\nvalue = [2, 0, 0, 0, 3]\nclass = t", fillcolor="#f6bdea"] ;
53 -> 55 ;
56 [label="entropy = 0.0\nsamples = 1\nvalue = [1, 0, 0, 0, 0]\nclass = c", fillcolor="#e58139"] ;
52 -> 56 ;
57 [label="entropy = 0.0\nsamples = 11\nvalue = [20, 0, 0, 0, 0]\nclass = c", fillcolor="#e58139"] ;
49 -> 57 ;
58 [label="20's_sales_rate <= -0.3\nentropy = 0.34\nsamples = 48\nvalue = [2, 0, 0, 2, 75]\nclass = t", fillcolor="#e643c3"] ;
48 -> 58 ;
59 [label="10's_sales_rate <= 0.5\nentropy = 0.1\nsamples = 45\nvalue = [1, 0, 0, 0, 75]\nclass = t", fillcolor="#e53cc1"] ;
58 -> 59 ;
60 [label="entropy = 0.0\nsamples = 41\nvalue = [0, 0, 0, 0, 71]\nclass = t", fillcolor="#e539c0"] ;
59 -> 60 ;
61 [label="30's_sales_rate <= -0.1\nentropy = 0.72\nsamples = 4\nvalue = [1, 0, 0, 0, 4]\nclass = t", fillcolor="#ec6ad0"] ;
59 -> 61 ;
62 [label="entropy = 0.0\nsamples = 3\nvalue = [0, 0, 0, 0, 4]\nclass = t", fillcolor="#e539c0"] ;
61 -> 62 ;
63 [label="entropy = 0.0\nsamples = 1\nvalue = [1, 0, 0, 0, 0]\nclass = c", fillcolor="#e58139"] ;
61 -> 63 ;
64 [label="60's_sales_rate <= 0.0\nentropy = 0.92\nsamples = 3\nvalue = [1, 0, 0, 2, 0]\nclass = s", fillcolor="#9e9cf2"] ;
58 -> 64 ;
65 [label="entropy = 0.0\nsamples = 2\nvalue = [0, 0, 0, 2, 0]\nclass = s", fillcolor="#3c39e5"] ;
64 -> 65 ;
66 [label="entropy = 0.0\nsamples = 1\nvalue = [1, 0, 0, 0, 0]\nclass = c", fillcolor="#e58139"] ;
64 -> 66 ;
67 [label="60's_sales_rate <= -0.66\nentropy = 0.27\nsamples = 603\nvalue = [1, 0, 0, 42, 902]\nclass = t", fillcolor="#e642c3"] ;
47 -> 67 ;
68 [label="10's_sales_rate <= 2.16\nentropy = 0.49\nsamples = 248\nvalue = [1, 0, 0, 38, 347]\nclass = t", fillcolor="#e84fc7"] ;
67 -> 68 ;
69 [label="30's_sales_rate <= 0.06\nentropy = 0.03\nsamples = 230\nvalue = [1, 0, 0, 0, 347]\nclass = t", fillcolor="#e53ac0"] ;
68 -> 69 ;
70 [label="entropy = 0.0\nsamples = 227\nvalue = [0, 0, 0, 0, 345]\nclass = t", fillcolor="#e539c0"] ;
69 -> 70 ;
71 [label="40's_sales_rate <= 0.41\nentropy = 0.92\nsamples = 3\nvalue = [1, 0, 0, 0, 2]\nclass = t", fillcolor="#f29ce0"] ;
69 -> 71 ;
72 [label="entropy = 0.0\nsamples = 2\nvalue = [0, 0, 0, 0, 2]\nclass = t", fillcolor="#e539c0"] ;
71 -> 72 ;
73 [label="entropy = 0.0\nsamples = 1\nvalue = [1, 0, 0, 0, 0]\nclass = c", fillcolor="#e58139"] ;
71 -> 73 ;
74 [label="entropy = 0.0\nsamples = 18\nvalue = [0, 0, 0, 38, 0]\nclass = s", fillcolor="#3c39e5"] ;
68 -> 74 ;
75 [label="40's_sales_rate <= -0.73\nentropy = 0.06\nsamples = 355\nvalue = [0, 0, 0, 4, 555]\nclass = t", fillcolor="#e53ac0"] ;
67 -> 75 ;
76 [label="50's_sales_rate <= 1.72\nentropy = 0.72\nsamples = 11\nvalue = [0, 0, 0, 3, 12]\nclass = t", fillcolor="#ec6ad0"] ;
75 -> 76 ;
77 [label="entropy = 0.0\nsamples = 1\nvalue = [0, 0, 0, 3, 0]\nclass = s", fillcolor="#3c39e5"] ;
76 -> 77 ;
78 [label="entropy = 0.0\nsamples = 10\nvalue = [0, 0, 0, 0, 12]\nclass = t", fillcolor="#e539c0"] ;
76 -> 78 ;
79 [label="simillar_store_number <= -0.42\nentropy = 0.02\nsamples = 344\nvalue = [0, 0, 0, 1, 543]\nclass = t", fillcolor="#e539c0"] ;
75 -> 79 ;
80 [label="60's_sales_rate <= -0.21\nentropy = 0.04\nsamples = 134\nvalue = [0, 0, 0, 1, 220]\nclass = t", fillcolor="#e53ac0"] ;
79 -> 80 ;
81 [label="50's_sales_rate <= 0.54\nentropy = 0.07\nsamples = 72\nvalue = [0, 0, 0, 1, 112]\nclass = t", fillcolor="#e53bc1"] ;
80 -> 81 ;
82 [label="entropy = 0.65\nsamples = 5\nvalue = [0, 0, 0, 1, 5]\nclass = t", fillcolor="#ea61cd"] ;
81 -> 82 ;
83 [label="entropy = 0.0\nsamples = 67\nvalue = [0, 0, 0, 0, 107]\nclass = t", fillcolor="#e539c0"] ;
81 -> 83 ;
84 [label="entropy = 0.0\nsamples = 62\nvalue = [0, 0, 0, 0, 108]\nclass = t", fillcolor="#e539c0"] ;
80 -> 84 ;
85 [label="entropy = 0.0\nsamples = 210\nvalue = [0, 0, 0, 0, 323]\nclass = t", fillcolor="#e539c0"] ;
79 -> 85 ;
86 [label="simillar_store_number <= 1.95\nentropy = 0.69\nsamples = 82\nvalue = [0, 0, 24, 0, 105]\nclass = t", fillcolor="#eb66ce"] ;
46 -> 86 ;
87 [label="30's_sales_rate <= -1.19\nentropy = 0.65\nsamples = 80\nvalue = [0, 0, 21, 0, 105]\nclass = t", fillcolor="#ea61cd"] ;
86 -> 87 ;
88 [label="entropy = 0.0\nsamples = 53\nvalue = [0, 0, 0, 0, 89]\nclass = t", fillcolor="#e539c0"] ;
87 -> 88 ;
89 [label="30's_sales_rate <= -0.36\nentropy = 0.99\nsamples = 27\nvalue = [0, 0, 21, 0, 16]\nclass = u", fillcolor="#d0f9f1"] ;
87 -> 89 ;
90 [label="20's_sales_rate <= -0.71\nentropy = 0.98\nsamples = 18\nvalue = [0, 0, 11, 0, 16]\nclass = t", fillcolor="#f7c1eb"] ;
89 -> 90 ;
91 [label="40's_sales_rate <= 1.25\nentropy = 0.88\nsamples = 13\nvalue = [0, 0, 6, 0, 14]\nclass = t", fillcolor="#f08edb"] ;
90 -> 91 ;
92 [label="entropy = 0.0\nsamples = 9\nvalue = [0, 0, 0, 0, 13]\nclass = t", fillcolor="#e539c0"] ;
91 -> 92 ;
93 [label="60's_sales_rate <= -0.48\nentropy = 0.59\nsamples = 4\nvalue = [0, 0, 6, 0, 1]\nclass = u", fillcolor="#5ae9cf"] ;
91 -> 93 ;
94 [label="entropy = 0.0\nsamples = 2\nvalue = [0, 0, 5, 0, 0]\nclass = u", fillcolor="#39e5c5"] ;
93 -> 94 ;
95 [label="entropy = 1.0\nsamples = 2\nvalue = [0, 0, 1, 0, 1]\nclass = u", fillcolor="#ffffff"] ;
93 -> 95 ;
96 [label="30's_sales_rate <= -0.95\nentropy = 0.86\nsamples = 5\nvalue = [0, 0, 5, 0, 2]\nclass = u", fillcolor="#88efdc"] ;
90 -> 96 ;
97 [label="entropy = 0.0\nsamples = 1\nvalue = [0, 0, 0, 0, 1]\nclass = t", fillcolor="#e539c0"] ;
96 -> 97 ;
98 [label="10's_sales_rate <= -0.39\nentropy = 0.65\nsamples = 4\nvalue = [0, 0, 5, 0, 1]\nclass = u", fillcolor="#61ead1"] ;
96 -> 98 ;
99 [label="entropy = 0.0\nsamples = 2\nvalue = [0, 0, 4, 0, 0]\nclass = u", fillcolor="#39e5c5"] ;
98 -> 99 ;
100 [label="entropy = 1.0\nsamples = 2\nvalue = [0, 0, 1, 0, 1]\nclass = u", fillcolor="#ffffff"] ;
98 -> 100 ;
101 [label="entropy = 0.0\nsamples = 9\nvalue = [0, 0, 10, 0, 0]\nclass = u", fillcolor="#39e5c5"] ;
89 -> 101 ;
102 [label="entropy = 0.0\nsamples = 2\nvalue = [0, 0, 3, 0, 0]\nclass = u", fillcolor="#39e5c5"] ;
86 -> 102 ;
103 [label="60's_sales_rate <= -0.81\nentropy = 0.05\nsamples = 832\nvalue = [0, 0, 1326, 8, 0]\nclass = u", fillcolor="#3ae5c5"] ;
3 -> 103 ;
104 [label="40's_sales_rate <= 1.46\nentropy = 0.03\nsamples = 612\nvalue = [0, 0, 1006, 3, 0]\nclass = u", fillcolor="#3ae5c5"] ;
103 -> 104 ;
105 [label="20's_sales_rate <= -0.9\nentropy = 0.81\nsamples = 6\nvalue = [0, 0, 6, 2, 0]\nclass = u", fillcolor="#7beed8"] ;
104 -> 105 ;
106 [label="50's_sales_rate <= -0.34\nentropy = 1.0\nsamples = 3\nvalue = [0, 0, 2, 2, 0]\nclass = u", fillcolor="#ffffff"] ;
105 -> 106 ;
107 [label="entropy = 0.0\nsamples = 1\nvalue = [0, 0, 0, 2, 0]\nclass = s", fillcolor="#3c39e5"] ;
106 -> 107 ;
108 [label="entropy = 0.0\nsamples = 2\nvalue = [0, 0, 2, 0, 0]\nclass = u", fillcolor="#39e5c5"] ;
106 -> 108 ;
109 [label="entropy = 0.0\nsamples = 3\nvalue = [0, 0, 4, 0, 0]\nclass = u", fillcolor="#39e5c5"] ;
105 -> 109 ;
110 [label="10's_sales_rate <= 4.13\nentropy = 0.01\nsamples = 606\nvalue = [0, 0, 1000, 1, 0]\nclass = u", fillcolor="#39e5c5"] ;
104 -> 110 ;
111 [label="entropy = 0.0\nsamples = 605\nvalue = [0, 0, 1000, 0, 0]\nclass = u", fillcolor="#39e5c5"] ;
110 -> 111 ;
112 [label="entropy = 0.0\nsamples = 1\nvalue = [0, 0, 0, 1, 0]\nclass = s", fillcolor="#3c39e5"] ;
110 -> 112 ;
113 [label="60's_sales_rate <= -0.8\nentropy = 0.11\nsamples = 220\nvalue = [0, 0, 320, 5, 0]\nclass = u", fillcolor="#3ce5c6"] ;
103 -> 113 ;
114 [label="simillar_store_number <= 0.76\nentropy = 0.95\nsamples = 5\nvalue = [0, 0, 5, 3, 0]\nclass = u", fillcolor="#b0f5e8"] ;
113 -> 114 ;
115 [label="entropy = 0.0\nsamples = 2\nvalue = [0, 0, 0, 3, 0]\nclass = s", fillcolor="#3c39e5"] ;
114 -> 115 ;
116 [label="entropy = 0.0\nsamples = 3\nvalue = [0, 0, 5, 0, 0]\nclass = u", fillcolor="#39e5c5"] ;
114 -> 116 ;
117 [label="10's_sales_rate <= 2.13\nentropy = 0.06\nsamples = 215\nvalue = [0, 0, 315, 2, 0]\nclass = u", fillcolor="#3ae5c5"] ;
113 -> 117 ;
118 [label="entropy = 0.0\nsamples = 214\nvalue = [0, 0, 315, 0, 0]\nclass = u", fillcolor="#39e5c5"] ;
117 -> 118 ;
119 [label="entropy = 0.0\nsamples = 1\nvalue = [0, 0, 0, 2, 0]\nclass = s", fillcolor="#3c39e5"] ;
117 -> 119 ;
120 [label="40's_sales_rate <= 1.07\nentropy = 1.05\nsamples = 2532\nvalue = [3142, 0, 85, 514, 284]\nclass = c", fillcolor="#eca16b"] ;
2 -> 120 ;
121 [label="10's_sales_rate <= 1.95\nentropy = 0.92\nsamples = 2442\nvalue = [3076, 0, 0, 511, 283]\nclass = c", fillcolor="#eb9f68"] ;
120 -> 121 ;
122 [label="50's_sales_rate <= 0.39\nentropy = 0.46\nsamples = 2120\nvalue = [3067, 0, 0, 15, 283]\nclass = c", fillcolor="#e88d4c"] ;
121 -> 122 ;
123 [label="50's_sales_rate <= 0.16\nentropy = 0.12\nsamples = 1795\nvalue = [2799, 0, 0, 15, 27]\nclass = c", fillcolor="#e5833c"] ;
122 -> 123 ;
124 [label="40's_sales_rate <= -0.85\nentropy = 0.05\nsamples = 1582\nvalue = [2491, 0, 0, 15, 0]\nclass = c", fillcolor="#e5823a"] ;
123 -> 124 ;
125 [label="30's_sales_rate <= -0.37\nentropy = 0.18\nsamples = 352\nvalue = [525, 0, 0, 15, 0]\nclass = c", fillcolor="#e6853f"] ;
124 -> 125 ;
126 [label="20's_sales_rate <= 3.45\nentropy = 0.24\nsamples = 259\nvalue = [371, 0, 0, 15, 0]\nclass = c", fillcolor="#e68641"] ;
125 -> 126 ;
127 [label="50's_sales_rate <= -1.07\nentropy = 0.32\nsamples = 171\nvalue = [245, 0, 0, 15, 0]\nclass = c", fillcolor="#e78945"] ;
126 -> 127 ;
128 [label="10's_sales_rate <= 1.65\nentropy = 0.97\nsamples = 16\nvalue = [12, 0, 0, 8, 0]\nclass = c", fillcolor="#f6d5bd"] ;
127 -> 128 ;
129 [label="entropy = 0.0\nsamples = 9\nvalue = [12, 0, 0, 0, 0]\nclass = c", fillcolor="#e58139"] ;
128 -> 129 ;
130 [label="entropy = 0.0\nsamples = 7\nvalue = [0, 0, 0, 8, 0]\nclass = s", fillcolor="#3c39e5"] ;
128 -> 130 ;
131 [label="10's_sales_rate <= 1.75\nentropy = 0.19\nsamples = 155\nvalue = [233, 0, 0, 7, 0]\nclass = c", fillcolor="#e6853f"] ;
127 -> 131 ;
132 [label="entropy = 0.04\nsamples = 150\nvalue = [232, 0, 0, 1, 0]\nclass = c", fillcolor="#e5823a"] ;
131 -> 132 ;
133 [label="entropy = 0.59\nsamples = 5\nvalue = [1, 0, 0, 6, 0]\nclass = s", fillcolor="#5d5ae9"] ;
131 -> 133 ;
134 [label="entropy = 0.0\nsamples = 88\nvalue = [126, 0, 0, 0, 0]\nclass = c", fillcolor="#e58139"] ;
126 -> 134 ;
135 [label="entropy = 0.0\nsamples = 93\nvalue = [154, 0, 0, 0, 0]\nclass = c", fillcolor="#e58139"] ;
125 -> 135 ;
136 [label="entropy = 0.0\nsamples = 1230\nvalue = [1966, 0, 0, 0, 0]\nclass = c", fillcolor="#e58139"] ;
124 -> 136 ;
137 [label="60's_sales_rate <= -0.22\nentropy = 0.4\nsamples = 213\nvalue = [308, 0, 0, 0, 27]\nclass = c", fillcolor="#e78c4a"] ;
123 -> 137 ;
138 [label="entropy = 0.0\nsamples = 128\nvalue = [211, 0, 0, 0, 0]\nclass = c", fillcolor="#e58139"] ;
137 -> 138 ;
139 [label="50's_sales_rate <= 0.32\nentropy = 0.76\nsamples = 85\nvalue = [97, 0, 0, 0, 27]\nclass = c", fillcolor="#eca470"] ;
137 -> 139 ;
140 [label="30's_sales_rate <= -0.08\nentropy = 0.64\nsamples = 68\nvalue = [83, 0, 0, 0, 16]\nclass = c", fillcolor="#ea995f"] ;
139 -> 140 ;
141 [label="simillar_store_number <= 0.9\nentropy = 0.82\nsamples = 45\nvalue = [46, 0, 0, 0, 16]\nclass = c", fillcolor="#eead7e"] ;
140 -> 141 ;
142 [label="20's_sales_rate <= -0.05\nentropy = 0.9\nsamples = 37\nvalue = [34, 0, 0, 0, 16]\nclass = c", fillcolor="#f1bc96"] ;
141 -> 142 ;
143 [label="entropy = 0.85\nsamples = 17\nvalue = [6, 0, 0, 0, 16]\nclass = t", fillcolor="#ef83d8"] ;
142 -> 143 ;
144 [label="entropy = 0.0\nsamples = 20\nvalue = [28, 0, 0, 0, 0]\nclass = c", fillcolor="#e58139"] ;
142 -> 144 ;
145 [label="entropy = 0.0\nsamples = 8\nvalue = [12, 0, 0, 0, 0]\nclass = c", fillcolor="#e58139"] ;
141 -> 145 ;
146 [label="entropy = 0.0\nsamples = 23\nvalue = [37, 0, 0, 0, 0]\nclass = c", fillcolor="#e58139"] ;
140 -> 146 ;
147 [label="10's_sales_rate <= -0.1\nentropy = 0.99\nsamples = 17\nvalue = [14, 0, 0, 0, 11]\nclass = c", fillcolor="#f9e4d5"] ;
139 -> 147 ;
148 [label="20's_sales_rate <= -0.03\nentropy = 0.78\nsamples = 9\nvalue = [3, 0, 0, 0, 10]\nclass = t", fillcolor="#ed74d3"] ;
147 -> 148 ;
149 [label="entropy = 0.0\nsamples = 5\nvalue = [0, 0, 0, 0, 8]\nclass = t", fillcolor="#e539c0"] ;
148 -> 149 ;
150 [label="50's_sales_rate <= 0.33\nentropy = 0.97\nsamples = 4\nvalue = [3, 0, 0, 0, 2]\nclass = c", fillcolor="#f6d5bd"] ;
148 -> 150 ;
151 [label="entropy = 0.0\nsamples = 1\nvalue = [0, 0, 0, 0, 2]\nclass = t", fillcolor="#e539c0"] ;
150 -> 151 ;
152 [label="entropy = 0.0\nsamples = 3\nvalue = [3, 0, 0, 0, 0]\nclass = c", fillcolor="#e58139"] ;
150 -> 152 ;
153 [label="40's_sales_rate <= 0.24\nentropy = 0.41\nsamples = 8\nvalue = [11, 0, 0, 0, 1]\nclass = c", fillcolor="#e78c4b"] ;
147 -> 153 ;
154 [label="entropy = 0.0\nsamples = 7\nvalue = [11, 0, 0, 0, 0]\nclass = c", fillcolor="#e58139"] ;
153 -> 154 ;
155 [label="entropy = 0.0\nsamples = 1\nvalue = [0, 0, 0, 0, 1]\nclass = t", fillcolor="#e539c0"] ;
153 -> 155 ;
156 [label="40's_sales_rate <= -0.77\nentropy = 1.0\nsamples = 325\nvalue = [268, 0, 0, 0, 256]\nclass = c", fillcolor="#fef9f6"] ;
122 -> 156 ;
157 [label="50's_sales_rate <= 2.24\nentropy = 0.93\nsamples = 60\nvalue = [58, 0, 0, 0, 30]\nclass = c", fillcolor="#f2c29f"] ;
156 -> 157 ;
158 [label="20's_sales_rate <= 0.55\nentropy = 0.35\nsamples = 43\nvalue = [58, 0, 0, 0, 4]\nclass = c", fillcolor="#e78a47"] ;
157 -> 158 ;
159 [label="60's_sales_rate <= -0.39\nentropy = 0.72\nsamples = 5\nvalue = [1, 0, 0, 0, 4]\nclass = t", fillcolor="#ec6ad0"] ;
158 -> 159 ;
160 [label="30's_sales_rate <= -0.45\nentropy = 1.0\nsamples = 2\nvalue = [1, 0, 0, 0, 1]\nclass = c", fillcolor="#ffffff"] ;
159 -> 160 ;
161 [label="entropy = 0.0\nsamples = 1\nvalue = [1, 0, 0, 0, 0]\nclass = c", fillcolor="#e58139"] ;
160 -> 161 ;
162 [label="entropy = 0.0\nsamples = 1\nvalue = [0, 0, 0, 0, 1]\nclass = t", fillcolor="#e539c0"] ;
160 -> 162 ;
163 [label="entropy = 0.0\nsamples = 3\nvalue = [0, 0, 0, 0, 3]\nclass = t", fillcolor="#e539c0"] ;
159 -> 163 ;
164 [label="entropy = 0.0\nsamples = 38\nvalue = [57, 0, 0, 0, 0]\nclass = c", fillcolor="#e58139"] ;
158 -> 164 ;
165 [label="entropy = 0.0\nsamples = 17\nvalue = [0, 0, 0, 0, 26]\nclass = t", fillcolor="#e539c0"] ;
157 -> 165 ;
166 [label="30's_sales_rate <= -0.41\nentropy = 1.0\nsamples = 265\nvalue = [210, 0, 0, 0, 226]\nclass = t", fillcolor="#fdf1fb"] ;
156 -> 166 ;
167 [label="50's_sales_rate <= 1.25\nentropy = 0.93\nsamples = 139\nvalue = [75, 0, 0, 0, 145]\nclass = t", fillcolor="#f29fe1"] ;
166 -> 167 ;
168 [label="40's_sales_rate <= -0.29\nentropy = 1.0\nsamples = 95\nvalue = [74, 0, 0, 0, 74]\nclass = c", fillcolor="#ffffff"] ;
167 -> 168 ;
169 [label="40's_sales_rate <= -0.51\nentropy = 0.27\nsamples = 13\nvalue = [21, 0, 0, 0, 1]\nclass = c", fillcolor="#e68742"] ;
168 -> 169 ;
170 [label="20's_sales_rate <= 0.5\nentropy = 0.65\nsamples = 6\nvalue = [5, 0, 0, 0, 1]\nclass = c", fillcolor="#ea9a61"] ;
169 -> 170 ;
171 [label="entropy = 1.0\nsamples = 2\nvalue = [1, 0, 0, 0, 1]\nclass = c", fillcolor="#ffffff"] ;
170 -> 171 ;
172 [label="entropy = 0.0\nsamples = 4\nvalue = [4, 0, 0, 0, 0]\nclass = c", fillcolor="#e58139"] ;
170 -> 172 ;
173 [label="entropy = 0.0\nsamples = 7\nvalue = [16, 0, 0, 0, 0]\nclass = c", fillcolor="#e58139"] ;
169 -> 173 ;
174 [label="60's_sales_rate <= -0.55\nentropy = 0.98\nsamples = 82\nvalue = [53, 0, 0, 0, 73]\nclass = t", fillcolor="#f8c9ee"] ;
168 -> 174 ;
175 [label="50's_sales_rate <= 0.82\nentropy = 0.53\nsamples = 28\nvalue = [36, 0, 0, 0, 5]\nclass = c", fillcolor="#e99254"] ;
174 -> 175 ;
176 [label="entropy = 0.0\nsamples = 15\nvalue = [22, 0, 0, 0, 0]\nclass = c", fillcolor="#e58139"] ;
175 -> 176 ;
177 [label="entropy = 0.83\nsamples = 13\nvalue = [14, 0, 0, 0, 5]\nclass = c", fillcolor="#eeae80"] ;
175 -> 177 ;
178 [label="10's_sales_rate <= 0.91\nentropy = 0.72\nsamples = 54\nvalue = [17, 0, 0, 0, 68]\nclass = t", fillcolor="#ec6ad0"] ;
174 -> 178 ;
179 [label="entropy = 0.58\nsamples = 49\nvalue = [11, 0, 0, 0, 68]\nclass = t", fillcolor="#e959ca"] ;
178 -> 179 ;
180 [label="entropy = 0.0\nsamples = 5\nvalue = [6, 0, 0, 0, 0]\nclass = c", fillcolor="#e58139"] ;
178 -> 180 ;
181 [label="20's_sales_rate <= 0.81\nentropy = 0.11\nsamples = 44\nvalue = [1, 0, 0, 0, 71]\nclass = t", fillcolor="#e53cc1"] ;
167 -> 181 ;
182 [label="entropy = 0.0\nsamples = 42\nvalue = [0, 0, 0, 0, 69]\nclass = t", fillcolor="#e539c0"] ;
181 -> 182 ;
183 [label="simillar_store_number <= -0.03\nentropy = 0.92\nsamples = 2\nvalue = [1, 0, 0, 0, 2]\nclass = t", fillcolor="#f29ce0"] ;
181 -> 183 ;
184 [label="entropy = 0.0\nsamples = 1\nvalue = [0, 0, 0, 0, 2]\nclass = t", fillcolor="#e539c0"] ;
183 -> 184 ;
185 [label="entropy = 0.0\nsamples = 1\nvalue = [1, 0, 0, 0, 0]\nclass = c", fillcolor="#e58139"] ;
183 -> 185 ;
186 [label="40's_sales_rate <= -0.55\nentropy = 0.95\nsamples = 126\nvalue = [135, 0, 0, 0, 81]\nclass = c", fillcolor="#f5cdb0"] ;
166 -> 186 ;
187 [label="entropy = 0.0\nsamples = 8\nvalue = [13, 0, 0, 0, 0]\nclass = c", fillcolor="#e58139"] ;
186 -> 187 ;
188 [label="20's_sales_rate <= -0.07\nentropy = 0.97\nsamples = 118\nvalue = [122, 0, 0, 0, 81]\nclass = c", fillcolor="#f6d5bc"] ;
186 -> 188 ;
189 [label="60's_sales_rate <= -0.28\nentropy = 0.81\nsamples = 56\nvalue = [24, 0, 0, 0, 72]\nclass = t", fillcolor="#ee7bd5"] ;
188 -> 189 ;
190 [label="20's_sales_rate <= -0.18\nentropy = 0.99\nsamples = 28\nvalue = [23, 0, 0, 0, 19]\nclass = c", fillcolor="#fae9dd"] ;
189 -> 190 ;
191 [label="entropy = 0.81\nsamples = 13\nvalue = [4, 0, 0, 0, 12]\nclass = t", fillcolor="#ee7bd5"] ;
190 -> 191 ;
192 [label="entropy = 0.84\nsamples = 15\nvalue = [19, 0, 0, 0, 7]\nclass = c", fillcolor="#efaf82"] ;
190 -> 192 ;
193 [label="50's_sales_rate <= 0.5\nentropy = 0.13\nsamples = 28\nvalue = [1, 0, 0, 0, 53]\nclass = t", fillcolor="#e53dc1"] ;
189 -> 193 ;
194 [label="entropy = 0.37\nsamples = 8\nvalue = [1, 0, 0, 0, 13]\nclass = t", fillcolor="#e748c5"] ;
193 -> 194 ;
195 [label="entropy = 0.0\nsamples = 20\nvalue = [0, 0, 0, 0, 40]\nclass = t", fillcolor="#e539c0"] ;
193 -> 195 ;
196 [label="30's_sales_rate <= 0.04\nentropy = 0.42\nsamples = 62\nvalue = [98, 0, 0, 0, 9]\nclass = c", fillcolor="#e78d4b"] ;
188 -> 196 ;
197 [label="30's_sales_rate <= -0.26\nentropy = 0.32\nsamples = 60\nvalue = [97, 0, 0, 0, 6]\nclass = c", fillcolor="#e78945"] ;
196 -> 197 ;
198 [label="entropy = 0.54\nsamples = 24\nvalue = [42, 0, 0, 0, 6]\nclass = c", fillcolor="#e99355"] ;
197 -> 198 ;
199 [label="entropy = 0.0\nsamples = 36\nvalue = [55, 0, 0, 0, 0]\nclass = c", fillcolor="#e58139"] ;
197 -> 199 ;
200 [label="simillar_store_number <= 0.11\nentropy = 0.81\nsamples = 2\nvalue = [1, 0, 0, 0, 3]\nclass = t", fillcolor="#ee7bd5"] ;
196 -> 200 ;
201 [label="entropy = 0.0\nsamples = 1\nvalue = [0, 0, 0, 0, 3]\nclass = t", fillcolor="#e539c0"] ;
200 -> 201 ;
202 [label="entropy = 0.0\nsamples = 1\nvalue = [1, 0, 0, 0, 0]\nclass = c", fillcolor="#e58139"] ;
200 -> 202 ;
203 [label="10's_sales_rate <= 2.14\nentropy = 0.13\nsamples = 322\nvalue = [9, 0, 0, 496, 0]\nclass = s", fillcolor="#403de5"] ;
121 -> 203 ;
204 [label="40's_sales_rate <= -0.52\nentropy = 0.72\nsamples = 32\nvalue = [9, 0, 0, 36, 0]\nclass = s", fillcolor="#6d6aec"] ;
203 -> 204 ;
205 [label="entropy = 0.0\nsamples = 14\nvalue = [0, 0, 0, 22, 0]\nclass = s", fillcolor="#3c39e5"] ;
204 -> 205 ;
206 [label="60's_sales_rate <= -0.69\nentropy = 0.97\nsamples = 18\nvalue = [9, 0, 0, 14, 0]\nclass = s", fillcolor="#b9b8f6"] ;
204 -> 206 ;
207 [label="entropy = 0.0\nsamples = 5\nvalue = [0, 0, 0, 7, 0]\nclass = s", fillcolor="#3c39e5"] ;
206 -> 207 ;
208 [label="20's_sales_rate <= 0.55\nentropy = 0.99\nsamples = 13\nvalue = [9, 0, 0, 7, 0]\nclass = c", fillcolor="#f9e3d3"] ;
206 -> 208 ;
209 [label="30's_sales_rate <= -0.46\nentropy = 0.5\nsamples = 8\nvalue = [8, 0, 0, 1, 0]\nclass = c", fillcolor="#e89152"] ;
208 -> 209 ;
210 [label="40's_sales_rate <= 0.71\nentropy = 1.0\nsamples = 2\nvalue = [1, 0, 0, 1, 0]\nclass = c", fillcolor="#ffffff"] ;
209 -> 210 ;
211 [label="entropy = 0.0\nsamples = 1\nvalue = [0, 0, 0, 1, 0]\nclass = s", fillcolor="#3c39e5"] ;
210 -> 211 ;
212 [label="entropy = 0.0\nsamples = 1\nvalue = [1, 0, 0, 0, 0]\nclass = c", fillcolor="#e58139"] ;
210 -> 212 ;
213 [label="entropy = 0.0\nsamples = 6\nvalue = [7, 0, 0, 0, 0]\nclass = c", fillcolor="#e58139"] ;
209 -> 213 ;
214 [label="simillar_store_number <= 0.63\nentropy = 0.59\nsamples = 5\nvalue = [1, 0, 0, 6, 0]\nclass = s", fillcolor="#5d5ae9"] ;
208 -> 214 ;
215 [label="entropy = 0.0\nsamples = 4\nvalue = [0, 0, 0, 6, 0]\nclass = s", fillcolor="#3c39e5"] ;
214 -> 215 ;
216 [label="entropy = 0.0\nsamples = 1\nvalue = [1, 0, 0, 0, 0]\nclass = c", fillcolor="#e58139"] ;
214 -> 216 ;
217 [label="entropy = 0.0\nsamples = 290\nvalue = [0, 0, 0, 460, 0]\nclass = s", fillcolor="#3c39e5"] ;
203 -> 217 ;
218 [label="10's_sales_rate <= 0.97\nentropy = 1.16\nsamples = 90\nvalue = [66, 0, 85, 3, 1]\nclass = u", fillcolor="#d5f9f3"] ;
120 -> 218 ;
219 [label="40's_sales_rate <= 1.61\nentropy = 1.02\nsamples = 82\nvalue = [53, 0, 85, 0, 1]\nclass = u", fillcolor="#b5f5e9"] ;
218 -> 219 ;
220 [label="40's_sales_rate <= 1.11\nentropy = 1.05\nsamples = 56\nvalue = [53, 0, 37, 0, 1]\nclass = c", fillcolor="#f7dac4"] ;
219 -> 220 ;
221 [label="simillar_store_number <= 1.16\nentropy = 1.22\nsamples = 6\nvalue = [6, 0, 2, 0, 1]\nclass = c", fillcolor="#f0b78e"] ;
220 -> 221 ;
222 [label="30's_sales_rate <= -1.0\nentropy = 0.59\nsamples = 5\nvalue = [6, 0, 0, 0, 1]\nclass = c", fillcolor="#e9965a"] ;
221 -> 222 ;
223 [label="entropy = 0.0\nsamples = 1\nvalue = [0, 0, 0, 0, 1]\nclass = t", fillcolor="#e539c0"] ;
222 -> 223 ;
224 [label="entropy = 0.0\nsamples = 4\nvalue = [6, 0, 0, 0, 0]\nclass = c", fillcolor="#e58139"] ;
222 -> 224 ;
225 [label="entropy = 0.0\nsamples = 1\nvalue = [0, 0, 2, 0, 0]\nclass = u", fillcolor="#39e5c5"] ;
221 -> 225 ;
226 [label="60's_sales_rate <= -0.38\nentropy = 0.98\nsamples = 50\nvalue = [47, 0, 35, 0, 0]\nclass = c", fillcolor="#f8dfcc"] ;
220 -> 226 ;
227 [label="50's_sales_rate <= -0.69\nentropy = 0.93\nsamples = 44\nvalue = [47, 0, 25, 0, 0]\nclass = c", fillcolor="#f3c4a2"] ;
226 -> 227 ;
228 [label="entropy = 0.0\nsamples = 25\nvalue = [43, 0, 0, 0, 0]\nclass = c", fillcolor="#e58139"] ;
227 -> 228 ;
229 [label="60's_sales_rate <= -0.7\nentropy = 0.58\nsamples = 19\nvalue = [4, 0, 25, 0, 0]\nclass = u", fillcolor="#59e9ce"] ;
227 -> 229 ;
230 [label="entropy = 0.0\nsamples = 14\nvalue = [0, 0, 20, 0, 0]\nclass = u", fillcolor="#39e5c5"] ;
229 -> 230 ;
231 [label="50's_sales_rate <= -0.19\nentropy = 0.99\nsamples = 5\nvalue = [4, 0, 5, 0, 0]\nclass = u", fillcolor="#d7faf3"] ;
229 -> 231 ;
232 [label="30's_sales_rate <= 0.07\nentropy = 0.72\nsamples = 3\nvalue = [4, 0, 1, 0, 0]\nclass = c", fillcolor="#eca06a"] ;
231 -> 232 ;
233 [label="entropy = 0.0\nsamples = 2\nvalue = [4, 0, 0, 0, 0]\nclass = c", fillcolor="#e58139"] ;
232 -> 233 ;
234 [label="entropy = 0.0\nsamples = 1\nvalue = [0, 0, 1, 0, 0]\nclass = u", fillcolor="#39e5c5"] ;
232 -> 234 ;
235 [label="entropy = 0.0\nsamples = 2\nvalue = [0, 0, 4, 0, 0]\nclass = u", fillcolor="#39e5c5"] ;
231 -> 235 ;
236 [label="entropy = 0.0\nsamples = 6\nvalue = [0, 0, 10, 0, 0]\nclass = u", fillcolor="#39e5c5"] ;
226 -> 236 ;
237 [label="entropy = 0.0\nsamples = 26\nvalue = [0, 0, 48, 0, 0]\nclass = u", fillcolor="#39e5c5"] ;
219 -> 237 ;
238 [label="60's_sales_rate <= -0.22\nentropy = 0.7\nsamples = 8\nvalue = [13, 0, 0, 3, 0]\nclass = c", fillcolor="#eb9e67"] ;
218 -> 238 ;
239 [label="40's_sales_rate <= 1.38\nentropy = 0.37\nsamples = 7\nvalue = [13, 0, 0, 1, 0]\nclass = c", fillcolor="#e78b48"] ;
238 -> 239 ;
240 [label="entropy = 0.0\nsamples = 6\nvalue = [13, 0, 0, 0, 0]\nclass = c", fillcolor="#e58139"] ;
239 -> 240 ;
241 [label="entropy = 0.0\nsamples = 1\nvalue = [0, 0, 0, 1, 0]\nclass = s", fillcolor="#3c39e5"] ;
239 -> 241 ;
242 [label="entropy = 0.0\nsamples = 1\nvalue = [0, 0, 0, 2, 0]\nclass = s", fillcolor="#3c39e5"] ;
238 -> 242 ;
243 [label="40's_sales_rate <= 1.1\nentropy = 0.55\nsamples = 4216\nvalue = [431, 0, 126, 55, 6027]\nclass = t", fillcolor="#e84dc6"] ;
1 -> 243 ;
244 [label="30's_sales_rate <= -0.32\nentropy = 0.42\nsamples = 4101\nvalue = [429, 0, 4, 51, 5987]\nclass = t", fillcolor="#e749c5"] ;
243 -> 244 ;
245 [label="60's_sales_rate <= 0.62\nentropy = 0.31\nsamples = 2869\nvalue = [169, 0, 1, 42, 4293]\nclass = t", fillcolor="#e643c3"] ;
244 -> 245 ;
246 [label="40's_sales_rate <= -0.41\nentropy = 0.62\nsamples = 723\nvalue = [124, 0, 1, 18, 992]\nclass = t", fillcolor="#e955c9"] ;
245 -> 246 ;
247 [label="10's_sales_rate <= 2.1\nentropy = 1.02\nsamples = 120\nvalue = [47, 0, 0, 7, 135]\nclass = t", fillcolor="#ef84d8"] ;
246 -> 247 ;
248 [label="20's_sales_rate <= 0.29\nentropy = 0.82\nsamples = 115\nvalue = [47, 0, 0, 0, 135]\nclass = t", fillcolor="#ee7ed6"] ;
247 -> 248 ;
249 [label="entropy = 0.0\nsamples = 82\nvalue = [0, 0, 0, 0, 129]\nclass = t", fillcolor="#e539c0"] ;
248 -> 249 ;
250 [label="20's_sales_rate <= 0.88\nentropy = 0.51\nsamples = 33\nvalue = [47, 0, 0, 0, 6]\nclass = c", fillcolor="#e89152"] ;
248 -> 250 ;
251 [label="simillar_store_number <= -0.42\nentropy = 0.75\nsamples = 18\nvalue = [22, 0, 0, 0, 6]\nclass = c", fillcolor="#eca36f"] ;
250 -> 251 ;
252 [label="30's_sales_rate <= -0.69\nentropy = 0.92\nsamples = 10\nvalue = [12, 0, 0, 0, 6]\nclass = c", fillcolor="#f2c09c"] ;
251 -> 252 ;
253 [label="entropy = 0.0\nsamples = 2\nvalue = [0, 0, 0, 0, 4]\nclass = t", fillcolor="#e539c0"] ;
252 -> 253 ;
254 [label="50's_sales_rate <= 0.8\nentropy = 0.59\nsamples = 8\nvalue = [12, 0, 0, 0, 2]\nclass = c", fillcolor="#e9965a"] ;
252 -> 254 ;
255 [label="entropy = 0.0\nsamples = 7\nvalue = [12, 0, 0, 0, 0]\nclass = c", fillcolor="#e58139"] ;
254 -> 255 ;
256 [label="entropy = 0.0\nsamples = 1\nvalue = [0, 0, 0, 0, 2]\nclass = t", fillcolor="#e539c0"] ;
254 -> 256 ;
257 [label="entropy = 0.0\nsamples = 8\nvalue = [10, 0, 0, 0, 0]\nclass = c", fillcolor="#e58139"] ;
251 -> 257 ;
258 [label="entropy = 0.0\nsamples = 15\nvalue = [25, 0, 0, 0, 0]\nclass = c", fillcolor="#e58139"] ;
250 -> 258 ;
259 [label="entropy = 0.0\nsamples = 5\nvalue = [0, 0, 0, 7, 0]\nclass = s", fillcolor="#3c39e5"] ;
247 -> 259 ;
260 [label="30's_sales_rate <= -0.94\nentropy = 0.51\nsamples = 603\nvalue = [77, 0, 1, 11, 857]\nclass = t", fillcolor="#e84dc6"] ;
246 -> 260 ;
261 [label="50's_sales_rate <= 0.34\nentropy = 0.81\nsamples = 94\nvalue = [14, 0, 0, 11, 125]\nclass = t", fillcolor="#ea5dcc"] ;
260 -> 261 ;
262 [label="10's_sales_rate <= 2.01\nentropy = 1.49\nsamples = 22\nvalue = [14, 0, 0, 8, 6]\nclass = c", fillcolor="#f7d9c4"] ;
261 -> 262 ;
263 [label="50's_sales_rate <= -0.31\nentropy = 0.88\nsamples = 16\nvalue = [14, 0, 0, 0, 6]\nclass = c", fillcolor="#f0b78e"] ;
262 -> 263 ;
264 [label="entropy = 0.0\nsamples = 8\nvalue = [11, 0, 0, 0, 0]\nclass = c", fillcolor="#e58139"] ;
263 -> 264 ;
265 [label="40's_sales_rate <= 0.3\nentropy = 0.92\nsamples = 8\nvalue = [3, 0, 0, 0, 6]\nclass = t", fillcolor="#f29ce0"] ;
263 -> 265 ;
266 [label="50's_sales_rate <= 0.13\nentropy = 0.81\nsamples = 4\nvalue = [3, 0, 0, 0, 1]\nclass = c", fillcolor="#eeab7b"] ;
265 -> 266 ;
267 [label="entropy = 0.0\nsamples = 3\nvalue = [3, 0, 0, 0, 0]\nclass = c", fillcolor="#e58139"] ;
266 -> 267 ;
268 [label="entropy = 0.0\nsamples = 1\nvalue = [0, 0, 0, 0, 1]\nclass = t", fillcolor="#e539c0"] ;
266 -> 268 ;
269 [label="entropy = 0.0\nsamples = 4\nvalue = [0, 0, 0, 0, 5]\nclass = t", fillcolor="#e539c0"] ;
265 -> 269 ;
270 [label="entropy = 0.0\nsamples = 6\nvalue = [0, 0, 0, 8, 0]\nclass = s", fillcolor="#3c39e5"] ;
262 -> 270 ;
271 [label="60's_sales_rate <= 0.44\nentropy = 0.17\nsamples = 72\nvalue = [0, 0, 0, 3, 119]\nclass = t", fillcolor="#e63ec2"] ;
261 -> 271 ;
272 [label="entropy = 0.0\nsamples = 52\nvalue = [0, 0, 0, 0, 82]\nclass = t", fillcolor="#e539c0"] ;
271 -> 272 ;
273 [label="60's_sales_rate <= 0.45\nentropy = 0.38\nsamples = 20\nvalue = [0, 0, 0, 3, 37]\nclass = t", fillcolor="#e749c5"] ;
271 -> 273 ;
274 [label="entropy = 0.0\nsamples = 1\nvalue = [0, 0, 0, 3, 0]\nclass = s", fillcolor="#3c39e5"] ;
273 -> 274 ;
275 [label="entropy = 0.0\nsamples = 19\nvalue = [0, 0, 0, 0, 37]\nclass = t", fillcolor="#e539c0"] ;
273 -> 275 ;
276 [label="50's_sales_rate <= -0.09\nentropy = 0.41\nsamples = 509\nvalue = [63, 0, 1, 0, 732]\nclass = t", fillcolor="#e74ac6"] ;
260 -> 276 ;
277 [label="50's_sales_rate <= -0.26\nentropy = 0.94\nsamples = 45\nvalue = [49, 0, 1, 0, 18]\nclass = c", fillcolor="#efb184"] ;
276 -> 277 ;
278 [label="60's_sales_rate <= 0.33\nentropy = 0.35\nsamples = 27\nvalue = [36, 0, 1, 0, 1]\nclass = c", fillcolor="#e68844"] ;
277 -> 278 ;
279 [label="entropy = 0.0\nsamples = 20\nvalue = [30, 0, 0, 0, 0]\nclass = c", fillcolor="#e58139"] ;
278 -> 279 ;
280 [label="40's_sales_rate <= 0.36\nentropy = 1.06\nsamples = 7\nvalue = [6, 0, 1, 0, 1]\nclass = c", fillcolor="#eca572"] ;
278 -> 280 ;
281 [label="entropy = 0.0\nsamples = 4\nvalue = [5, 0, 0, 0, 0]\nclass = c", fillcolor="#e58139"] ;
280 -> 281 ;
282 [label="30's_sales_rate <= -0.81\nentropy = 1.58\nsamples = 3\nvalue = [1, 0, 1, 0, 1]\nclass = c", fillcolor="#ffffff"] ;
280 -> 282 ;
283 [label="entropy = 0.0\nsamples = 1\nvalue = [1, 0, 0, 0, 0]\nclass = c", fillcolor="#e58139"] ;
282 -> 283 ;
284 [label="entropy = 1.0\nsamples = 2\nvalue = [0, 0, 1, 0, 1]\nclass = u", fillcolor="#ffffff"] ;
282 -> 284 ;
285 [label="60's_sales_rate <= 0.21\nentropy = 0.99\nsamples = 18\nvalue = [13, 0, 0, 0, 17]\nclass = t", fillcolor="#f9d0f0"] ;
277 -> 285 ;
286 [label="50's_sales_rate <= -0.24\nentropy = 0.92\nsamples = 8\nvalue = [10, 0, 0, 0, 5]\nclass = c", fillcolor="#f2c09c"] ;
285 -> 286 ;
287 [label="entropy = 0.0\nsamples = 3\nvalue = [0, 0, 0, 0, 5]\nclass = t", fillcolor="#e539c0"] ;
286 -> 287 ;
288 [label="entropy = 0.0\nsamples = 5\nvalue = [10, 0, 0, 0, 0]\nclass = c", fillcolor="#e58139"] ;
286 -> 288 ;
289 [label="60's_sales_rate <= 0.61\nentropy = 0.72\nsamples = 10\nvalue = [3, 0, 0, 0, 12]\nclass = t", fillcolor="#ec6ad0"] ;
285 -> 289 ;
290 [label="simillar_store_number <= 0.37\nentropy = 0.39\nsamples = 9\nvalue = [1, 0, 0, 0, 12]\nclass = t", fillcolor="#e749c5"] ;
289 -> 290 ;
291 [label="entropy = 0.0\nsamples = 8\nvalue = [0, 0, 0, 0, 12]\nclass = t", fillcolor="#e539c0"] ;
290 -> 291 ;
292 [label="entropy = 0.0\nsamples = 1\nvalue = [1, 0, 0, 0, 0]\nclass = c", fillcolor="#e58139"] ;
290 -> 292 ;
293 [label="entropy = 0.0\nsamples = 1\nvalue = [2, 0, 0, 0, 0]\nclass = c", fillcolor="#e58139"] ;
289 -> 293 ;
294 [label="20's_sales_rate <= 0.14\nentropy = 0.14\nsamples = 464\nvalue = [14, 0, 0, 0, 714]\nclass = t", fillcolor="#e63dc1"] ;
276 -> 294 ;
295 [label="50's_sales_rate <= 0.17\nentropy = 0.03\nsamples = 443\nvalue = [2, 0, 0, 0, 698]\nclass = t", fillcolor="#e53ac0"] ;
294 -> 295 ;
296 [label="20's_sales_rate <= -0.1\nentropy = 0.19\nsamples = 42\nvalue = [2, 0, 0, 0, 68]\nclass = t", fillcolor="#e63fc2"] ;
295 -> 296 ;
297 [label="entropy = 0.0\nsamples = 36\nvalue = [0, 0, 0, 0, 62]\nclass = t", fillcolor="#e539c0"] ;
296 -> 297 ;
298 [label="10's_sales_rate <= 0.52\nentropy = 0.81\nsamples = 6\nvalue = [2, 0, 0, 0, 6]\nclass = t", fillcolor="#ee7bd5"] ;
296 -> 298 ;
299 [label="entropy = 0.0\nsamples = 4\nvalue = [0, 0, 0, 0, 6]\nclass = t", fillcolor="#e539c0"] ;
298 -> 299 ;
300 [label="entropy = 0.0\nsamples = 2\nvalue = [2, 0, 0, 0, 0]\nclass = c", fillcolor="#e58139"] ;
298 -> 300 ;
301 [label="entropy = 0.0\nsamples = 401\nvalue = [0, 0, 0, 0, 630]\nclass = t", fillcolor="#e539c0"] ;
295 -> 301 ;
302 [label="60's_sales_rate <= 0.05\nentropy = 0.99\nsamples = 21\nvalue = [12, 0, 0, 0, 16]\nclass = t", fillcolor="#f8ceef"] ;
294 -> 302 ;
303 [label="entropy = 0.0\nsamples = 1\nvalue = [0, 0, 0, 0, 4]\nclass = t", fillcolor="#e539c0"] ;
302 -> 303 ;
304 [label="50's_sales_rate <= 0.18\nentropy = 1.0\nsamples = 20\nvalue = [12, 0, 0, 0, 12]\nclass = c", fillcolor="#ffffff"] ;
302 -> 304 ;
305 [label="entropy = 0.0\nsamples = 9\nvalue = [11, 0, 0, 0, 0]\nclass = c", fillcolor="#e58139"] ;
304 -> 305 ;
306 [label="30's_sales_rate <= -0.44\nentropy = 0.39\nsamples = 11\nvalue = [1, 0, 0, 0, 12]\nclass = t", fillcolor="#e749c5"] ;
304 -> 306 ;
307 [label="entropy = 0.0\nsamples = 9\nvalue = [0, 0, 0, 0, 11]\nclass = t", fillcolor="#e539c0"] ;
306 -> 307 ;
308 [label="entropy = 1.0\nsamples = 2\nvalue = [1, 0, 0, 0, 1]\nclass = c", fillcolor="#ffffff"] ;
306 -> 308 ;
309 [label="20's_sales_rate <= 0.61\nentropy = 0.16\nsamples = 2146\nvalue = [45, 0, 0, 24, 3301]\nclass = t", fillcolor="#e63dc1"] ;
245 -> 309 ;
310 [label="10's_sales_rate <= 2.3\nentropy = 0.04\nsamples = 2091\nvalue = [0, 0, 0, 15, 3276]\nclass = t", fillcolor="#e53ac0"] ;
309 -> 310 ;
311 [label="entropy = 0.0\nsamples = 2079\nvalue = [0, 0, 0, 0, 3276]\nclass = t", fillcolor="#e539c0"] ;
310 -> 311 ;
312 [label="entropy = 0.0\nsamples = 12\nvalue = [0, 0, 0, 15, 0]\nclass = s", fillcolor="#3c39e5"] ;
310 -> 312 ;
313 [label="50's_sales_rate <= 0.03\nentropy = 1.34\nsamples = 55\nvalue = [45, 0, 0, 9, 25]\nclass = c", fillcolor="#f5d0b6"] ;
309 -> 313 ;
314 [label="60's_sales_rate <= 2.44\nentropy = 1.3\nsamples = 48\nvalue = [44, 0, 0, 9, 17]\nclass = c", fillcolor="#f2bf9a"] ;
313 -> 314 ;
315 [label="40's_sales_rate <= -0.97\nentropy = 1.06\nsamples = 41\nvalue = [44, 0, 0, 9, 6]\nclass = c", fillcolor="#eda774"] ;
314 -> 315 ;
316 [label="20's_sales_rate <= 1.24\nentropy = 1.0\nsamples = 25\nvalue = [25, 0, 0, 9, 1]\nclass = c", fillcolor="#efb185"] ;
315 -> 316 ;
317 [label="20's_sales_rate <= 1.08\nentropy = 0.47\nsamples = 6\nvalue = [0, 0, 0, 9, 1]\nclass = s", fillcolor="#524fe8"] ;
316 -> 317 ;
318 [label="entropy = 0.0\nsamples = 5\nvalue = [0, 0, 0, 9, 0]\nclass = s", fillcolor="#3c39e5"] ;
317 -> 318 ;
319 [label="entropy = 0.0\nsamples = 1\nvalue = [0, 0, 0, 0, 1]\nclass = t", fillcolor="#e539c0"] ;
317 -> 319 ;
320 [label="entropy = 0.0\nsamples = 19\nvalue = [25, 0, 0, 0, 0]\nclass = c", fillcolor="#e58139"] ;
316 -> 320 ;
321 [label="60's_sales_rate <= 1.3\nentropy = 0.74\nsamples = 16\nvalue = [19, 0, 0, 0, 5]\nclass = c", fillcolor="#eca26d"] ;
315 -> 321 ;
322 [label="entropy = 0.0\nsamples = 10\nvalue = [15, 0, 0, 0, 0]\nclass = c", fillcolor="#e58139"] ;
321 -> 322 ;
323 [label="40's_sales_rate <= -0.64\nentropy = 0.99\nsamples = 6\nvalue = [4, 0, 0, 0, 5]\nclass = t", fillcolor="#fad7f2"] ;
321 -> 323 ;
324 [label="entropy = 0.0\nsamples = 1\nvalue = [2, 0, 0, 0, 0]\nclass = c", fillcolor="#e58139"] ;
323 -> 324 ;
325 [label="40's_sales_rate <= -0.45\nentropy = 0.86\nsamples = 5\nvalue = [2, 0, 0, 0, 5]\nclass = t", fillcolor="#ef88d9"] ;
323 -> 325 ;
326 [label="entropy = 0.0\nsamples = 2\nvalue = [0, 0, 0, 0, 4]\nclass = t", fillcolor="#e539c0"] ;
325 -> 326 ;
327 [label="entropy = 0.92\nsamples = 3\nvalue = [2, 0, 0, 0, 1]\nclass = c", fillcolor="#f2c09c"] ;
325 -> 327 ;
328 [label="entropy = 0.0\nsamples = 7\nvalue = [0, 0, 0, 0, 11]\nclass = t", fillcolor="#e539c0"] ;
314 -> 328 ;
329 [label="50's_sales_rate <= 0.51\nentropy = 0.5\nsamples = 7\nvalue = [1, 0, 0, 0, 8]\nclass = t", fillcolor="#e852c8"] ;
313 -> 329 ;
330 [label="50's_sales_rate <= 0.21\nentropy = 0.81\nsamples = 3\nvalue = [1, 0, 0, 0, 3]\nclass = t", fillcolor="#ee7bd5"] ;
329 -> 330 ;
331 [label="entropy = 0.0\nsamples = 2\nvalue = [0, 0, 0, 0, 3]\nclass = t", fillcolor="#e539c0"] ;
330 -> 331 ;
332 [label="entropy = 0.0\nsamples = 1\nvalue = [1, 0, 0, 0, 0]\nclass = c", fillcolor="#e58139"] ;
330 -> 332 ;
333 [label="entropy = 0.0\nsamples = 4\nvalue = [0, 0, 0, 0, 5]\nclass = t", fillcolor="#e539c0"] ;
329 -> 333 ;
334 [label="60's_sales_rate <= 0.34\nentropy = 0.62\nsamples = 1232\nvalue = [260, 0, 3, 9, 1694]\nclass = t", fillcolor="#e959ca"] ;
244 -> 334 ;
335 [label="50's_sales_rate <= 0.09\nentropy = 0.95\nsamples = 426\nvalue = [198, 0, 3, 3, 469]\nclass = t", fillcolor="#f08edb"] ;
334 -> 335 ;
336 [label="20's_sales_rate <= -0.2\nentropy = 0.91\nsamples = 140\nvalue = [164, 0, 3, 3, 40]\nclass = c", fillcolor="#eca36f"] ;
335 -> 336 ;
337 [label="20's_sales_rate <= -0.33\nentropy = 1.28\nsamples = 41\nvalue = [12, 0, 3, 3, 40]\nclass = t", fillcolor="#ef86d9"] ;
336 -> 337 ;
338 [label="60's_sales_rate <= 0.09\nentropy = 0.61\nsamples = 25\nvalue = [1, 0, 0, 3, 31]\nclass = t", fillcolor="#e852c8"] ;
337 -> 338 ;
339 [label="30's_sales_rate <= 0.04\nentropy = 1.0\nsamples = 2\nvalue = [1, 0, 0, 0, 1]\nclass = c", fillcolor="#ffffff"] ;
338 -> 339 ;
340 [label="entropy = 0.0\nsamples = 1\nvalue = [1, 0, 0, 0, 0]\nclass = c", fillcolor="#e58139"] ;
339 -> 340 ;
341 [label="entropy = 0.0\nsamples = 1\nvalue = [0, 0, 0, 0, 1]\nclass = t", fillcolor="#e539c0"] ;
339 -> 341 ;
342 [label="60's_sales_rate <= 0.13\nentropy = 0.44\nsamples = 23\nvalue = [0, 0, 0, 3, 30]\nclass = t", fillcolor="#e84dc6"] ;
338 -> 342 ;
343 [label="50's_sales_rate <= -0.14\nentropy = 0.86\nsamples = 4\nvalue = [0, 0, 0, 2, 5]\nclass = t", fillcolor="#ef88d9"] ;
342 -> 343 ;
344 [label="entropy = 0.0\nsamples = 2\nvalue = [0, 0, 0, 0, 4]\nclass = t", fillcolor="#e539c0"] ;
343 -> 344 ;
345 [label="10's_sales_rate <= 2.22\nentropy = 0.92\nsamples = 2\nvalue = [0, 0, 0, 2, 1]\nclass = s", fillcolor="#9e9cf2"] ;
343 -> 345 ;
346 [label="entropy = 0.0\nsamples = 1\nvalue = [0, 0, 0, 0, 1]\nclass = t", fillcolor="#e539c0"] ;
345 -> 346 ;
347 [label="entropy = 0.0\nsamples = 1\nvalue = [0, 0, 0, 2, 0]\nclass = s", fillcolor="#3c39e5"] ;
345 -> 347 ;
348 [label="10's_sales_rate <= 1.46\nentropy = 0.24\nsamples = 19\nvalue = [0, 0, 0, 1, 25]\nclass = t", fillcolor="#e641c3"] ;
342 -> 348 ;
349 [label="entropy = 0.0\nsamples = 18\nvalue = [0, 0, 0, 0, 25]\nclass = t", fillcolor="#e539c0"] ;
348 -> 349 ;
350 [label="entropy = 0.0\nsamples = 1\nvalue = [0, 0, 0, 1, 0]\nclass = s", fillcolor="#3c39e5"] ;
348 -> 350 ;
351 [label="30's_sales_rate <= -0.3\nentropy = 1.42\nsamples = 16\nvalue = [11, 0, 3, 0, 9]\nclass = c", fillcolor="#fbede3"] ;
337 -> 351 ;
352 [label="simillar_store_number <= 0.11\nentropy = 0.97\nsamples = 2\nvalue = [2, 0, 3, 0, 0]\nclass = u", fillcolor="#bdf6ec"] ;
351 -> 352 ;
353 [label="entropy = 0.0\nsamples = 1\nvalue = [2, 0, 0, 0, 0]\nclass = c", fillcolor="#e58139"] ;
352 -> 353 ;
354 [label="entropy = 0.0\nsamples = 1\nvalue = [0, 0, 3, 0, 0]\nclass = u", fillcolor="#39e5c5"] ;
352 -> 354 ;
355 [label="30's_sales_rate <= -0.04\nentropy = 1.0\nsamples = 14\nvalue = [9, 0, 0, 0, 9]\nclass = c", fillcolor="#ffffff"] ;
351 -> 355 ;
356 [label="50's_sales_rate <= 0.04\nentropy = 0.54\nsamples = 6\nvalue = [1, 0, 0, 0, 7]\nclass = t", fillcolor="#e955c9"] ;
355 -> 356 ;
357 [label="entropy = 0.0\nsamples = 4\nvalue = [0, 0, 0, 0, 6]\nclass = t", fillcolor="#e539c0"] ;
356 -> 357 ;
358 [label="40's_sales_rate <= 0.18\nentropy = 1.0\nsamples = 2\nvalue = [1, 0, 0, 0, 1]\nclass = c", fillcolor="#ffffff"] ;
356 -> 358 ;
359 [label="entropy = 0.0\nsamples = 1\nvalue = [1, 0, 0, 0, 0]\nclass = c", fillcolor="#e58139"] ;
358 -> 359 ;
360 [label="entropy = 0.0\nsamples = 1\nvalue = [0, 0, 0, 0, 1]\nclass = t", fillcolor="#e539c0"] ;
358 -> 360 ;
361 [label="40's_sales_rate <= 0.06\nentropy = 0.72\nsamples = 8\nvalue = [8, 0, 0, 0, 2]\nclass = c", fillcolor="#eca06a"] ;
355 -> 361 ;
362 [label="entropy = 0.0\nsamples = 2\nvalue = [0, 0, 0, 0, 2]\nclass = t", fillcolor="#e539c0"] ;
361 -> 362 ;
363 [label="entropy = 0.0\nsamples = 6\nvalue = [8, 0, 0, 0, 0]\nclass = c", fillcolor="#e58139"] ;
361 -> 363 ;
364 [label="entropy = 0.0\nsamples = 99\nvalue = [152, 0, 0, 0, 0]\nclass = c", fillcolor="#e58139"] ;
336 -> 364 ;
365 [label="20's_sales_rate <= 0.09\nentropy = 0.38\nsamples = 286\nvalue = [34, 0, 0, 0, 429]\nclass = t", fillcolor="#e749c5"] ;
335 -> 365 ;
366 [label="50's_sales_rate <= 0.3\nentropy = 0.11\nsamples = 264\nvalue = [6, 0, 0, 0, 425]\nclass = t", fillcolor="#e53cc1"] ;
365 -> 366 ;
367 [label="40's_sales_rate <= -0.25\nentropy = 0.25\nsamples = 90\nvalue = [6, 0, 0, 0, 140]\nclass = t", fillcolor="#e641c3"] ;
366 -> 367 ;
368 [label="10's_sales_rate <= -0.21\nentropy = 0.89\nsamples = 5\nvalue = [4, 0, 0, 0, 9]\nclass = t", fillcolor="#f191dc"] ;
367 -> 368 ;
369 [label="entropy = 0.0\nsamples = 2\nvalue = [0, 0, 0, 0, 6]\nclass = t", fillcolor="#e539c0"] ;
368 -> 369 ;
370 [label="simillar_store_number <= -0.42\nentropy = 0.99\nsamples = 3\nvalue = [4, 0, 0, 0, 3]\nclass = c", fillcolor="#f8e0ce"] ;
368 -> 370 ;
371 [label="entropy = 0.0\nsamples = 1\nvalue = [0, 0, 0, 0, 3]\nclass = t", fillcolor="#e539c0"] ;
370 -> 371 ;
372 [label="entropy = 0.0\nsamples = 2\nvalue = [4, 0, 0, 0, 0]\nclass = c", fillcolor="#e58139"] ;
370 -> 372 ;
373 [label="60's_sales_rate <= 0.1\nentropy = 0.11\nsamples = 85\nvalue = [2, 0, 0, 0, 131]\nclass = t", fillcolor="#e53cc1"] ;
367 -> 373 ;
374 [label="40's_sales_rate <= 0.04\nentropy = 0.39\nsamples = 15\nvalue = [2, 0, 0, 0, 24]\nclass = t", fillcolor="#e749c5"] ;
373 -> 374 ;
375 [label="60's_sales_rate <= 0.06\nentropy = 0.92\nsamples = 3\nvalue = [2, 0, 0, 0, 1]\nclass = c", fillcolor="#f2c09c"] ;
374 -> 375 ;
376 [label="entropy = 0.0\nsamples = 1\nvalue = [1, 0, 0, 0, 0]\nclass = c", fillcolor="#e58139"] ;
375 -> 376 ;
377 [label="entropy = 1.0\nsamples = 2\nvalue = [1, 0, 0, 0, 1]\nclass = c", fillcolor="#ffffff"] ;
375 -> 377 ;
378 [label="entropy = 0.0\nsamples = 12\nvalue = [0, 0, 0, 0, 23]\nclass = t", fillcolor="#e539c0"] ;
374 -> 378 ;
379 [label="entropy = 0.0\nsamples = 70\nvalue = [0, 0, 0, 0, 107]\nclass = t", fillcolor="#e539c0"] ;
373 -> 379 ;
380 [label="entropy = 0.0\nsamples = 174\nvalue = [0, 0, 0, 0, 285]\nclass = t", fillcolor="#e539c0"] ;
366 -> 380 ;
381 [label="simillar_store_number <= -0.16\nentropy = 0.54\nsamples = 22\nvalue = [28, 0, 0, 0, 4]\nclass = c", fillcolor="#e99355"] ;
365 -> 381 ;
382 [label="entropy = 0.0\nsamples = 11\nvalue = [13, 0, 0, 0, 0]\nclass = c", fillcolor="#e58139"] ;
381 -> 382 ;
383 [label="10's_sales_rate <= -0.19\nentropy = 0.74\nsamples = 11\nvalue = [15, 0, 0, 0, 4]\nclass = c", fillcolor="#eca36e"] ;
381 -> 383 ;
384 [label="50's_sales_rate <= 0.31\nentropy = 0.92\nsamples = 8\nvalue = [8, 0, 0, 0, 4]\nclass = c", fillcolor="#f2c09c"] ;
383 -> 384 ;
385 [label="entropy = 0.0\nsamples = 4\nvalue = [7, 0, 0, 0, 0]\nclass = c", fillcolor="#e58139"] ;
384 -> 385 ;
386 [label="40's_sales_rate <= -1.02\nentropy = 0.72\nsamples = 4\nvalue = [1, 0, 0, 0, 4]\nclass = t", fillcolor="#ec6ad0"] ;
384 -> 386 ;
387 [label="entropy = 0.0\nsamples = 1\nvalue = [1, 0, 0, 0, 0]\nclass = c", fillcolor="#e58139"] ;
386 -> 387 ;
388 [label="entropy = 0.0\nsamples = 3\nvalue = [0, 0, 0, 0, 4]\nclass = t", fillcolor="#e539c0"] ;
386 -> 388 ;
389 [label="entropy = 0.0\nsamples = 3\nvalue = [7, 0, 0, 0, 0]\nclass = c", fillcolor="#e58139"] ;
383 -> 389 ;
390 [label="20's_sales_rate <= -0.03\nentropy = 0.32\nsamples = 806\nvalue = [62, 0, 0, 6, 1225]\nclass = t", fillcolor="#e644c3"] ;
334 -> 390 ;
391 [label="50's_sales_rate <= -0.17\nentropy = 0.08\nsamples = 734\nvalue = [8, 0, 0, 3, 1175]\nclass = t", fillcolor="#e53bc1"] ;
390 -> 391 ;
392 [label="30's_sales_rate <= 0.06\nentropy = 0.42\nsamples = 84\nvalue = [8, 0, 0, 2, 133]\nclass = t", fillcolor="#e748c5"] ;
391 -> 392 ;
393 [label="50's_sales_rate <= -0.95\nentropy = 0.28\nsamples = 72\nvalue = [3, 0, 0, 2, 120]\nclass = t", fillcolor="#e641c3"] ;
392 -> 393 ;
394 [label="10's_sales_rate <= 3.01\nentropy = 0.59\nsamples = 7\nvalue = [0, 0, 0, 2, 12]\nclass = t", fillcolor="#e95acb"] ;
393 -> 394 ;
395 [label="entropy = 0.0\nsamples = 6\nvalue = [0, 0, 0, 0, 12]\nclass = t", fillcolor="#e539c0"] ;
394 -> 395 ;
396 [label="entropy = 0.0\nsamples = 1\nvalue = [0, 0, 0, 2, 0]\nclass = s", fillcolor="#3c39e5"] ;
394 -> 396 ;
397 [label="20's_sales_rate <= -0.14\nentropy = 0.18\nsamples = 65\nvalue = [3, 0, 0, 0, 108]\nclass = t", fillcolor="#e63ec2"] ;
393 -> 397 ;
398 [label="10's_sales_rate <= 1.47\nentropy = 0.08\nsamples = 60\nvalue = [1, 0, 0, 0, 102]\nclass = t", fillcolor="#e53bc1"] ;
397 -> 398 ;
399 [label="entropy = 0.0\nsamples = 59\nvalue = [0, 0, 0, 0, 102]\nclass = t", fillcolor="#e539c0"] ;
398 -> 399 ;
400 [label="entropy = 0.0\nsamples = 1\nvalue = [1, 0, 0, 0, 0]\nclass = c", fillcolor="#e58139"] ;
398 -> 400 ;
401 [label="10's_sales_rate <= -0.1\nentropy = 0.81\nsamples = 5\nvalue = [2, 0, 0, 0, 6]\nclass = t", fillcolor="#ee7bd5"] ;
397 -> 401 ;
402 [label="entropy = 0.0\nsamples = 4\nvalue = [0, 0, 0, 0, 6]\nclass = t", fillcolor="#e539c0"] ;
401 -> 402 ;
403 [label="entropy = 0.0\nsamples = 1\nvalue = [2, 0, 0, 0, 0]\nclass = c", fillcolor="#e58139"] ;
401 -> 403 ;
404 [label="60's_sales_rate <= 0.63\nentropy = 0.85\nsamples = 12\nvalue = [5, 0, 0, 0, 13]\nclass = t", fillcolor="#ef85d8"] ;
392 -> 404 ;
405 [label="50's_sales_rate <= -0.86\nentropy = 0.95\nsamples = 5\nvalue = [5, 0, 0, 0, 3]\nclass = c", fillcolor="#f5cdb0"] ;
404 -> 405 ;
406 [label="entropy = 0.0\nsamples = 1\nvalue = [3, 0, 0, 0, 0]\nclass = c", fillcolor="#e58139"] ;
405 -> 406 ;
407 [label="simillar_store_number <= 0.11\nentropy = 0.97\nsamples = 4\nvalue = [2, 0, 0, 0, 3]\nclass = t", fillcolor="#f6bdea"] ;
405 -> 407 ;
408 [label="entropy = 0.0\nsamples = 3\nvalue = [0, 0, 0, 0, 3]\nclass = t", fillcolor="#e539c0"] ;
407 -> 408 ;
409 [label="entropy = 0.0\nsamples = 1\nvalue = [2, 0, 0, 0, 0]\nclass = c", fillcolor="#e58139"] ;
407 -> 409 ;
410 [label="entropy = 0.0\nsamples = 7\nvalue = [0, 0, 0, 0, 10]\nclass = t", fillcolor="#e539c0"] ;
404 -> 410 ;
411 [label="50's_sales_rate <= 0.04\nentropy = 0.01\nsamples = 650\nvalue = [0, 0, 0, 1, 1042]\nclass = t", fillcolor="#e539c0"] ;
391 -> 411 ;
412 [label="40's_sales_rate <= -0.43\nentropy = 0.06\nsamples = 92\nvalue = [0, 0, 0, 1, 143]\nclass = t", fillcolor="#e53ac0"] ;
411 -> 412 ;
413 [label="60's_sales_rate <= 0.71\nentropy = 0.26\nsamples = 13\nvalue = [0, 0, 0, 1, 22]\nclass = t", fillcolor="#e642c3"] ;
412 -> 413 ;
414 [label="entropy = 0.0\nsamples = 1\nvalue = [0, 0, 0, 1, 0]\nclass = s", fillcolor="#3c39e5"] ;
413 -> 414 ;
415 [label="entropy = 0.0\nsamples = 12\nvalue = [0, 0, 0, 0, 22]\nclass = t", fillcolor="#e539c0"] ;
413 -> 415 ;
416 [label="entropy = 0.0\nsamples = 79\nvalue = [0, 0, 0, 0, 121]\nclass = t", fillcolor="#e539c0"] ;
412 -> 416 ;
417 [label="entropy = 0.0\nsamples = 558\nvalue = [0, 0, 0, 0, 899]\nclass = t", fillcolor="#e539c0"] ;
411 -> 417 ;
418 [label="40's_sales_rate <= -0.3\nentropy = 1.16\nsamples = 72\nvalue = [54, 0, 0, 3, 50]\nclass = c", fillcolor="#fdf6f1"] ;
390 -> 418 ;
419 [label="20's_sales_rate <= 0.29\nentropy = 0.98\nsamples = 54\nvalue = [33, 0, 0, 0, 48]\nclass = t", fillcolor="#f7c1eb"] ;
418 -> 419 ;
420 [label="30's_sales_rate <= -0.06\nentropy = 0.25\nsamples = 31\nvalue = [2, 0, 0, 0, 46]\nclass = t", fillcolor="#e642c3"] ;
419 -> 420 ;
421 [label="entropy = 0.0\nsamples = 23\nvalue = [0, 0, 0, 0, 36]\nclass = t", fillcolor="#e539c0"] ;
420 -> 421 ;
422 [label="30's_sales_rate <= -0.0\nentropy = 0.65\nsamples = 8\nvalue = [2, 0, 0, 0, 10]\nclass = t", fillcolor="#ea61cd"] ;
420 -> 422 ;
423 [label="50's_sales_rate <= 0.1\nentropy = 0.92\nsamples = 3\nvalue = [2, 0, 0, 0, 1]\nclass = c", fillcolor="#f2c09c"] ;
422 -> 423 ;
424 [label="entropy = 0.0\nsamples = 2\nvalue = [2, 0, 0, 0, 0]\nclass = c", fillcolor="#e58139"] ;
423 -> 424 ;
425 [label="entropy = 0.0\nsamples = 1\nvalue = [0, 0, 0, 0, 1]\nclass = t", fillcolor="#e539c0"] ;
423 -> 425 ;
426 [label="entropy = 0.0\nsamples = 5\nvalue = [0, 0, 0, 0, 9]\nclass = t", fillcolor="#e539c0"] ;
422 -> 426 ;
427 [label="50's_sales_rate <= 0.46\nentropy = 0.33\nsamples = 23\nvalue = [31, 0, 0, 0, 2]\nclass = c", fillcolor="#e78946"] ;
419 -> 427 ;
428 [label="20's_sales_rate <= 0.34\nentropy = 0.2\nsamples = 22\nvalue = [31, 0, 0, 0, 1]\nclass = c", fillcolor="#e6853f"] ;
427 -> 428 ;
429 [label="simillar_store_number <= -0.42\nentropy = 0.65\nsamples = 3\nvalue = [5, 0, 0, 0, 1]\nclass = c", fillcolor="#ea9a61"] ;
428 -> 429 ;
430 [label="10's_sales_rate <= -0.36\nentropy = 0.92\nsamples = 2\nvalue = [2, 0, 0, 0, 1]\nclass = c", fillcolor="#f2c09c"] ;
429 -> 430 ;
431 [label="entropy = 0.0\nsamples = 1\nvalue = [0, 0, 0, 0, 1]\nclass = t", fillcolor="#e539c0"] ;
430 -> 431 ;
432 [label="entropy = 0.0\nsamples = 1\nvalue = [2, 0, 0, 0, 0]\nclass = c", fillcolor="#e58139"] ;
430 -> 432 ;
433 [label="entropy = 0.0\nsamples = 1\nvalue = [3, 0, 0, 0, 0]\nclass = c", fillcolor="#e58139"] ;
429 -> 433 ;
434 [label="entropy = 0.0\nsamples = 19\nvalue = [26, 0, 0, 0, 0]\nclass = c", fillcolor="#e58139"] ;
428 -> 434 ;
435 [label="entropy = 0.0\nsamples = 1\nvalue = [0, 0, 0, 0, 1]\nclass = t", fillcolor="#e539c0"] ;
427 -> 435 ;
436 [label="30's_sales_rate <= -0.09\nentropy = 0.89\nsamples = 18\nvalue = [21, 0, 0, 3, 2]\nclass = c", fillcolor="#eb9c64"] ;
418 -> 436 ;
437 [label="10's_sales_rate <= 2.14\nentropy = 1.44\nsamples = 8\nvalue = [6, 0, 0, 3, 2]\nclass = c", fillcolor="#f5d0b5"] ;
436 -> 437 ;
438 [label="50's_sales_rate <= -0.3\nentropy = 0.81\nsamples = 7\nvalue = [6, 0, 0, 0, 2]\nclass = c", fillcolor="#eeab7b"] ;
437 -> 438 ;
439 [label="entropy = 0.0\nsamples = 4\nvalue = [5, 0, 0, 0, 0]\nclass = c", fillcolor="#e58139"] ;
438 -> 439 ;
440 [label="10's_sales_rate <= -0.27\nentropy = 0.92\nsamples = 3\nvalue = [1, 0, 0, 0, 2]\nclass = t", fillcolor="#f29ce0"] ;
438 -> 440 ;
441 [label="entropy = 0.0\nsamples = 1\nvalue = [0, 0, 0, 0, 1]\nclass = t", fillcolor="#e539c0"] ;
440 -> 441 ;
442 [label="20's_sales_rate <= 0.11\nentropy = 1.0\nsamples = 2\nvalue = [1, 0, 0, 0, 1]\nclass = c", fillcolor="#ffffff"] ;
440 -> 442 ;
443 [label="entropy = 0.0\nsamples = 1\nvalue = [0, 0, 0, 0, 1]\nclass = t", fillcolor="#e539c0"] ;
442 -> 443 ;
444 [label="entropy = 0.0\nsamples = 1\nvalue = [1, 0, 0, 0, 0]\nclass = c", fillcolor="#e58139"] ;
442 -> 444 ;
445 [label="entropy = 0.0\nsamples = 1\nvalue = [0, 0, 0, 3, 0]\nclass = s", fillcolor="#3c39e5"] ;
437 -> 445 ;
446 [label="entropy = 0.0\nsamples = 10\nvalue = [15, 0, 0, 0, 0]\nclass = c", fillcolor="#e58139"] ;
436 -> 446 ;
447 [label="40's_sales_rate <= 1.44\nentropy = 1.03\nsamples = 115\nvalue = [2, 0, 122, 4, 40]\nclass = u", fillcolor="#80eeda"] ;
243 -> 447 ;
448 [label="60's_sales_rate <= 1.46\nentropy = 1.23\nsamples = 54\nvalue = [2, 0, 36, 1, 40]\nclass = t", fillcolor="#fdedf9"] ;
447 -> 448 ;
449 [label="50's_sales_rate <= -0.53\nentropy = 1.19\nsamples = 36\nvalue = [2, 0, 36, 1, 15]\nclass = u", fillcolor="#94f1e0"] ;
448 -> 449 ;
450 [label="20's_sales_rate <= 0.55\nentropy = 0.61\nsamples = 15\nvalue = [2, 0, 24, 1, 0]\nclass = u", fillcolor="#51e8cc"] ;
449 -> 450 ;
451 [label="10's_sales_rate <= 1.5\nentropy = 0.24\nsamples = 14\nvalue = [0, 0, 24, 1, 0]\nclass = u", fillcolor="#41e6c7"] ;
450 -> 451 ;
452 [label="entropy = 0.0\nsamples = 13\nvalue = [0, 0, 24, 0, 0]\nclass = u", fillcolor="#39e5c5"] ;
451 -> 452 ;
453 [label="entropy = 0.0\nsamples = 1\nvalue = [0, 0, 0, 1, 0]\nclass = s", fillcolor="#3c39e5"] ;
451 -> 453 ;
454 [label="entropy = 0.0\nsamples = 1\nvalue = [2, 0, 0, 0, 0]\nclass = c", fillcolor="#e58139"] ;
450 -> 454 ;
455 [label="50's_sales_rate <= 0.12\nentropy = 0.99\nsamples = 21\nvalue = [0, 0, 12, 0, 15]\nclass = t", fillcolor="#fad7f2"] ;
449 -> 455 ;
456 [label="40's_sales_rate <= 1.38\nentropy = 0.9\nsamples = 13\nvalue = [0, 0, 11, 0, 5]\nclass = u", fillcolor="#93f1df"] ;
455 -> 456 ;
457 [label="40's_sales_rate <= 1.28\nentropy = 0.75\nsamples = 11\nvalue = [0, 0, 11, 0, 3]\nclass = u", fillcolor="#6fecd5"] ;
456 -> 457 ;
458 [label="30's_sales_rate <= -0.52\nentropy = 0.92\nsamples = 8\nvalue = [0, 0, 6, 0, 3]\nclass = u", fillcolor="#9cf2e2"] ;
457 -> 458 ;
459 [label="60's_sales_rate <= 0.59\nentropy = 1.0\nsamples = 5\nvalue = [0, 0, 3, 0, 3]\nclass = u", fillcolor="#ffffff"] ;
458 -> 459 ;
460 [label="entropy = 0.0\nsamples = 2\nvalue = [0, 0, 3, 0, 0]\nclass = u", fillcolor="#39e5c5"] ;
459 -> 460 ;
461 [label="entropy = 0.0\nsamples = 3\nvalue = [0, 0, 0, 0, 3]\nclass = t", fillcolor="#e539c0"] ;
459 -> 461 ;
462 [label="entropy = 0.0\nsamples = 3\nvalue = [0, 0, 3, 0, 0]\nclass = u", fillcolor="#39e5c5"] ;
458 -> 462 ;
463 [label="entropy = 0.0\nsamples = 3\nvalue = [0, 0, 5, 0, 0]\nclass = u", fillcolor="#39e5c5"] ;
457 -> 463 ;
464 [label="entropy = 0.0\nsamples = 2\nvalue = [0, 0, 0, 0, 2]\nclass = t", fillcolor="#e539c0"] ;
456 -> 464 ;
465 [label="simillar_store_number <= 4.32\nentropy = 0.44\nsamples = 8\nvalue = [0, 0, 1, 0, 10]\nclass = t", fillcolor="#e84dc6"] ;
455 -> 465 ;
466 [label="entropy = 0.0\nsamples = 7\nvalue = [0, 0, 0, 0, 10]\nclass = t", fillcolor="#e539c0"] ;
465 -> 466 ;
467 [label="entropy = 0.0\nsamples = 1\nvalue = [0, 0, 1, 0, 0]\nclass = u", fillcolor="#39e5c5"] ;
465 -> 467 ;
468 [label="entropy = 0.0\nsamples = 18\nvalue = [0, 0, 0, 0, 25]\nclass = t", fillcolor="#e539c0"] ;
448 -> 468 ;
469 [label="30's_sales_rate <= -1.21\nentropy = 0.21\nsamples = 61\nvalue = [0, 0, 86, 3, 0]\nclass = u", fillcolor="#40e6c7"] ;
447 -> 469 ;
470 [label="50's_sales_rate <= -1.02\nentropy = 0.28\nsamples = 44\nvalue = [0, 0, 59, 3, 0]\nclass = u", fillcolor="#43e6c8"] ;
469 -> 470 ;
471 [label="simillar_store_number <= 1.42\nentropy = 0.38\nsamples = 26\nvalue = [0, 0, 38, 3, 0]\nclass = u", fillcolor="#49e7ca"] ;
470 -> 471 ;
472 [label="simillar_store_number <= -0.42\nentropy = 0.17\nsamples = 25\nvalue = [0, 0, 38, 1, 0]\nclass = u", fillcolor="#3ee6c7"] ;
471 -> 472 ;
473 [label="entropy = 0.0\nsamples = 9\nvalue = [0, 0, 16, 0, 0]\nclass = u", fillcolor="#39e5c5"] ;
472 -> 473 ;
474 [label="40's_sales_rate <= 1.97\nentropy = 0.26\nsamples = 16\nvalue = [0, 0, 22, 1, 0]\nclass = u", fillcolor="#42e6c8"] ;
472 -> 474 ;
475 [label="60's_sales_rate <= 1.02\nentropy = 0.72\nsamples = 3\nvalue = [0, 0, 4, 1, 0]\nclass = u", fillcolor="#6aecd4"] ;
474 -> 475 ;
476 [label="entropy = 0.0\nsamples = 1\nvalue = [0, 0, 0, 1, 0]\nclass = s", fillcolor="#3c39e5"] ;
475 -> 476 ;
477 [label="entropy = 0.0\nsamples = 2\nvalue = [0, 0, 4, 0, 0]\nclass = u", fillcolor="#39e5c5"] ;
475 -> 477 ;
478 [label="entropy = 0.0\nsamples = 13\nvalue = [0, 0, 18, 0, 0]\nclass = u", fillcolor="#39e5c5"] ;
474 -> 478 ;
479 [label="entropy = 0.0\nsamples = 1\nvalue = [0, 0, 0, 2, 0]\nclass = s", fillcolor="#3c39e5"] ;
471 -> 479 ;
480 [label="entropy = 0.0\nsamples = 18\nvalue = [0, 0, 21, 0, 0]\nclass = u", fillcolor="#39e5c5"] ;
470 -> 480 ;
481 [label="entropy = 0.0\nsamples = 17\nvalue = [0, 0, 27, 0, 0]\nclass = u", fillcolor="#39e5c5"] ;
469 -> 481 ;
482 [label="10's_sales_rate <= -0.36\nentropy = 1.38\nsamples = 5509\nvalue = [5907, 1650, 327, 63, 789]\nclass = c", fillcolor="#efb388"] ;
0 -> 482 [labeldistance=2.5, labelangle=-45, headlabel="False"] ;
483 [label="40's_sales_rate <= 1.02\nentropy = 1.74\nsamples = 2572\nvalue = [1617, 1558, 294, 0, 612]\nclass = c", fillcolor="#fefcfa"] ;
482 -> 483 ;
484 [label="20's_sales_rate <= -0.42\nentropy = 1.49\nsamples = 2306\nvalue = [1604, 1440, 4, 0, 612]\nclass = c", fillcolor="#fdf6f0"] ;
483 -> 484 ;
485 [label="60's_sales_rate <= -0.3\nentropy = 1.19\nsamples = 1094\nvalue = [97, 1086, 4, 0, 525]\nclass = l", fillcolor="#c1f3a1"] ;
484 -> 485 ;
486 [label="50's_sales_rate <= -0.17\nentropy = 0.73\nsamples = 700\nvalue = [49, 942, 3, 0, 100]\nclass = l", fillcolor="#8fe957"] ;
485 -> 486 ;
487 [label="30's_sales_rate <= 1.16\nentropy = 0.04\nsamples = 513\nvalue = [4, 812, 0, 0, 0]\nclass = l", fillcolor="#7ce53a"] ;
486 -> 487 ;
488 [label="40's_sales_rate <= 0.7\nentropy = 1.0\nsamples = 7\nvalue = [4, 4, 0, 0, 0]\nclass = c", fillcolor="#ffffff"] ;
487 -> 488 ;
489 [label="entropy = 0.0\nsamples = 3\nvalue = [0, 3, 0, 0, 0]\nclass = l", fillcolor="#7be539"] ;
488 -> 489 ;
490 [label="20's_sales_rate <= -0.64\nentropy = 0.72\nsamples = 4\nvalue = [4, 1, 0, 0, 0]\nclass = c", fillcolor="#eca06a"] ;
488 -> 490 ;
491 [label="entropy = 0.0\nsamples = 2\nvalue = [2, 0, 0, 0, 0]\nclass = c", fillcolor="#e58139"] ;
490 -> 491 ;
492 [label="20's_sales_rate <= -0.55\nentropy = 0.92\nsamples = 2\nvalue = [2, 1, 0, 0, 0]\nclass = c", fillcolor="#f2c09c"] ;
490 -> 492 ;
493 [label="entropy = 0.0\nsamples = 1\nvalue = [0, 1, 0, 0, 0]\nclass = l", fillcolor="#7be539"] ;
492 -> 493 ;
494 [label="entropy = 0.0\nsamples = 1\nvalue = [2, 0, 0, 0, 0]\nclass = c", fillcolor="#e58139"] ;
492 -> 494 ;
495 [label="entropy = 0.0\nsamples = 506\nvalue = [0, 808, 0, 0, 0]\nclass = l", fillcolor="#7be539"] ;
487 -> 495 ;
496 [label="30's_sales_rate <= 0.89\nentropy = 1.54\nsamples = 187\nvalue = [45, 130, 3, 0, 100]\nclass = l", fillcolor="#e9fbde"] ;
486 -> 496 ;
497 [label="50's_sales_rate <= 0.4\nentropy = 1.1\nsamples = 80\nvalue = [41, 0, 3, 0, 69]\nclass = t", fillcolor="#f5b2e6"] ;
496 -> 497 ;
498 [label="50's_sales_rate <= 0.27\nentropy = 0.38\nsamples = 29\nvalue = [38, 0, 0, 0, 3]\nclass = c", fillcolor="#e78b49"] ;
497 -> 498 ;
499 [label="20's_sales_rate <= -0.94\nentropy = 0.18\nsamples = 24\nvalue = [35, 0, 0, 0, 1]\nclass = c", fillcolor="#e6853f"] ;
498 -> 499 ;
500 [label="entropy = 0.0\nsamples = 1\nvalue = [0, 0, 0, 0, 1]\nclass = t", fillcolor="#e539c0"] ;
499 -> 500 ;
501 [label="entropy = 0.0\nsamples = 23\nvalue = [35, 0, 0, 0, 0]\nclass = c", fillcolor="#e58139"] ;
499 -> 501 ;
502 [label="60's_sales_rate <= -0.43\nentropy = 0.97\nsamples = 5\nvalue = [3, 0, 0, 0, 2]\nclass = c", fillcolor="#f6d5bd"] ;
498 -> 502 ;
503 [label="entropy = 0.0\nsamples = 3\nvalue = [3, 0, 0, 0, 0]\nclass = c", fillcolor="#e58139"] ;
502 -> 503 ;
504 [label="entropy = 0.0\nsamples = 2\nvalue = [0, 0, 0, 0, 2]\nclass = t", fillcolor="#e539c0"] ;
502 -> 504 ;
505 [label="30's_sales_rate <= 0.85\nentropy = 0.5\nsamples = 51\nvalue = [3, 0, 3, 0, 66]\nclass = t", fillcolor="#e74ac5"] ;
497 -> 505 ;
506 [label="40's_sales_rate <= 0.87\nentropy = 0.26\nsamples = 49\nvalue = [0, 0, 3, 0, 66]\nclass = t", fillcolor="#e642c3"] ;
505 -> 506 ;
507 [label="entropy = 0.0\nsamples = 47\nvalue = [0, 0, 0, 0, 66]\nclass = t", fillcolor="#e539c0"] ;
506 -> 507 ;
508 [label="entropy = 0.0\nsamples = 2\nvalue = [0, 0, 3, 0, 0]\nclass = u", fillcolor="#39e5c5"] ;
506 -> 508 ;
509 [label="entropy = 0.0\nsamples = 2\nvalue = [3, 0, 0, 0, 0]\nclass = c", fillcolor="#e58139"] ;
505 -> 509 ;
510 [label="30's_sales_rate <= 1.69\nentropy = 0.85\nsamples = 107\nvalue = [4, 130, 0, 0, 31]\nclass = l", fillcolor="#9dec6d"] ;
496 -> 510 ;
511 [label="20's_sales_rate <= -0.7\nentropy = 1.21\nsamples = 54\nvalue = [4, 46, 0, 0, 31]\nclass = l", fillcolor="#d7f7c4"] ;
510 -> 511 ;
512 [label="20's_sales_rate <= -0.94\nentropy = 0.98\nsamples = 45\nvalue = [0, 40, 0, 0, 29]\nclass = l", fillcolor="#dbf8c9"] ;
511 -> 512 ;
513 [label="30's_sales_rate <= 1.24\nentropy = 0.99\nsamples = 40\nvalue = [0, 34, 0, 0, 28]\nclass = l", fillcolor="#e8fadc"] ;
512 -> 513 ;
514 [label="simillar_store_number <= -0.42\nentropy = 0.9\nsamples = 23\nvalue = [0, 22, 0, 0, 10]\nclass = l", fillcolor="#b7f193"] ;
513 -> 514 ;
515 [label="entropy = 0.95\nsamples = 7\nvalue = [0, 3, 0, 0, 5]\nclass = t", fillcolor="#f5b0e6"] ;
514 -> 515 ;
516 [label="entropy = 0.74\nsamples = 16\nvalue = [0, 19, 0, 0, 5]\nclass = l", fillcolor="#9eec6d"] ;
514 -> 516 ;
517 [label="simillar_store_number <= 0.24\nentropy = 0.97\nsamples = 17\nvalue = [0, 12, 0, 0, 18]\nclass = t", fillcolor="#f6bdea"] ;
513 -> 517 ;
518 [label="entropy = 0.92\nsamples = 16\nvalue = [0, 9, 0, 0, 18]\nclass = t", fillcolor="#f29ce0"] ;
517 -> 518 ;
519 [label="entropy = 0.0\nsamples = 1\nvalue = [0, 3, 0, 0, 0]\nclass = l", fillcolor="#7be539"] ;
517 -> 519 ;
520 [label="50's_sales_rate <= 0.69\nentropy = 0.59\nsamples = 5\nvalue = [0, 6, 0, 0, 1]\nclass = l", fillcolor="#91e95a"] ;
512 -> 520 ;
521 [label="entropy = 0.0\nsamples = 4\nvalue = [0, 6, 0, 0, 0]\nclass = l", fillcolor="#7be539"] ;
520 -> 521 ;
522 [label="entropy = 0.0\nsamples = 1\nvalue = [0, 0, 0, 0, 1]\nclass = t", fillcolor="#e539c0"] ;
520 -> 522 ;
523 [label="40's_sales_rate <= -1.04\nentropy = 1.46\nsamples = 9\nvalue = [4, 6, 0, 0, 2]\nclass = l", fillcolor="#def8ce"] ;
511 -> 523 ;
524 [label="entropy = 0.0\nsamples = 1\nvalue = [0, 0, 0, 0, 2]\nclass = t", fillcolor="#e539c0"] ;
523 -> 524 ;
525 [label="30's_sales_rate <= 1.19\nentropy = 0.97\nsamples = 8\nvalue = [4, 6, 0, 0, 0]\nclass = l", fillcolor="#d3f6bd"] ;
523 -> 525 ;
526 [label="40's_sales_rate <= 0.27\nentropy = 0.72\nsamples = 5\nvalue = [4, 1, 0, 0, 0]\nclass = c", fillcolor="#eca06a"] ;
525 -> 526 ;
527 [label="entropy = 0.0\nsamples = 4\nvalue = [4, 0, 0, 0, 0]\nclass = c", fillcolor="#e58139"] ;
526 -> 527 ;
528 [label="entropy = 0.0\nsamples = 1\nvalue = [0, 1, 0, 0, 0]\nclass = l", fillcolor="#7be539"] ;
526 -> 528 ;
529 [label="entropy = 0.0\nsamples = 3\nvalue = [0, 5, 0, 0, 0]\nclass = l", fillcolor="#7be539"] ;
525 -> 529 ;
530 [label="entropy = 0.0\nsamples = 53\nvalue = [0, 84, 0, 0, 0]\nclass = l", fillcolor="#7be539"] ;
510 -> 530 ;
531 [label="60's_sales_rate <= 0.2\nentropy = 1.16\nsamples = 394\nvalue = [48, 144, 1, 0, 425]\nclass = t", fillcolor="#f08ada"] ;
485 -> 531 ;
532 [label="40's_sales_rate <= -0.02\nentropy = 1.51\nsamples = 138\nvalue = [43, 72, 1, 0, 113]\nclass = t", fillcolor="#f8cbef"] ;
531 -> 532 ;
533 [label="50's_sales_rate <= 0.09\nentropy = 1.15\nsamples = 61\nvalue = [3, 44, 0, 0, 56]\nclass = t", fillcolor="#fad7f2"] ;
532 -> 533 ;
534 [label="30's_sales_rate <= 1.06\nentropy = 0.38\nsamples = 20\nvalue = [3, 37, 0, 0, 0]\nclass = l", fillcolor="#86e749"] ;
533 -> 534 ;
535 [label="entropy = 0.0\nsamples = 2\nvalue = [3, 0, 0, 0, 0]\nclass = c", fillcolor="#e58139"] ;
534 -> 535 ;
536 [label="entropy = 0.0\nsamples = 18\nvalue = [0, 37, 0, 0, 0]\nclass = l", fillcolor="#7be539"] ;
534 -> 536 ;
537 [label="20's_sales_rate <= -0.76\nentropy = 0.5\nsamples = 41\nvalue = [0, 7, 0, 0, 56]\nclass = t", fillcolor="#e852c8"] ;
533 -> 537 ;
538 [label="30's_sales_rate <= 1.37\nentropy = 0.83\nsamples = 16\nvalue = [0, 6, 0, 0, 17]\nclass = t", fillcolor="#ee7fd6"] ;
537 -> 538 ;
539 [label="simillar_store_number <= -0.16\nentropy = 0.61\nsamples = 13\nvalue = [0, 3, 0, 0, 17]\nclass = t", fillcolor="#ea5ccb"] ;
538 -> 539 ;
540 [label="40's_sales_rate <= -0.23\nentropy = 0.95\nsamples = 7\nvalue = [0, 3, 0, 0, 5]\nclass = t", fillcolor="#f5b0e6"] ;
539 -> 540 ;
541 [label="entropy = 0.0\nsamples = 5\nvalue = [0, 0, 0, 0, 5]\nclass = t", fillcolor="#e539c0"] ;
540 -> 541 ;
542 [label="entropy = 0.0\nsamples = 2\nvalue = [0, 3, 0, 0, 0]\nclass = l", fillcolor="#7be539"] ;
540 -> 542 ;
543 [label="entropy = 0.0\nsamples = 6\nvalue = [0, 0, 0, 0, 12]\nclass = t", fillcolor="#e539c0"] ;
539 -> 543 ;
544 [label="entropy = 0.0\nsamples = 3\nvalue = [0, 3, 0, 0, 0]\nclass = l", fillcolor="#7be539"] ;
538 -> 544 ;
545 [label="50's_sales_rate <= 0.43\nentropy = 0.17\nsamples = 25\nvalue = [0, 1, 0, 0, 39]\nclass = t", fillcolor="#e63ec2"] ;
537 -> 545 ;
546 [label="50's_sales_rate <= 0.39\nentropy = 0.65\nsamples = 4\nvalue = [0, 1, 0, 0, 5]\nclass = t", fillcolor="#ea61cd"] ;
545 -> 546 ;
547 [label="entropy = 0.0\nsamples = 3\nvalue = [0, 0, 0, 0, 5]\nclass = t", fillcolor="#e539c0"] ;
546 -> 547 ;
548 [label="entropy = 0.0\nsamples = 1\nvalue = [0, 1, 0, 0, 0]\nclass = l", fillcolor="#7be539"] ;
546 -> 548 ;
549 [label="entropy = 0.0\nsamples = 21\nvalue = [0, 0, 0, 0, 34]\nclass = t", fillcolor="#e539c0"] ;
545 -> 549 ;
550 [label="20's_sales_rate <= -0.56\nentropy = 1.58\nsamples = 77\nvalue = [40, 28, 1, 0, 57]\nclass = t", fillcolor="#fad8f3"] ;
532 -> 550 ;
551 [label="50's_sales_rate <= 0.1\nentropy = 1.39\nsamples = 55\nvalue = [11, 24, 1, 0, 54]\nclass = t", fillcolor="#f3a5e2"] ;
550 -> 551 ;
552 [label="50's_sales_rate <= -0.41\nentropy = 1.62\nsamples = 33\nvalue = [11, 24, 1, 0, 14]\nclass = l", fillcolor="#daf8c8"] ;
551 -> 552 ;
553 [label="40's_sales_rate <= 0.85\nentropy = 0.8\nsamples = 12\nvalue = [2, 15, 1, 0, 0]\nclass = l", fillcolor="#94ea5e"] ;
552 -> 553 ;
554 [label="40's_sales_rate <= 0.79\nentropy = 0.34\nsamples = 11\nvalue = [0, 15, 1, 0, 0]\nclass = l", fillcolor="#84e746"] ;
553 -> 554 ;
555 [label="entropy = 0.0\nsamples = 9\nvalue = [0, 14, 0, 0, 0]\nclass = l", fillcolor="#7be539"] ;
554 -> 555 ;
556 [label="entropy = 1.0\nsamples = 2\nvalue = [0, 1, 1, 0, 0]\nclass = l", fillcolor="#ffffff"] ;
554 -> 556 ;
557 [label="entropy = 0.0\nsamples = 1\nvalue = [2, 0, 0, 0, 0]\nclass = c", fillcolor="#e58139"] ;
553 -> 557 ;
558 [label="40's_sales_rate <= 0.09\nentropy = 1.55\nsamples = 21\nvalue = [9, 9, 0, 0, 14]\nclass = t", fillcolor="#f9d4f1"] ;
552 -> 558 ;
559 [label="entropy = 0.0\nsamples = 3\nvalue = [0, 8, 0, 0, 0]\nclass = l", fillcolor="#7be539"] ;
558 -> 559 ;
560 [label="60's_sales_rate <= 0.01\nentropy = 1.18\nsamples = 18\nvalue = [9, 1, 0, 0, 14]\nclass = t", fillcolor="#f6bdea"] ;
558 -> 560 ;
561 [label="entropy = 0.92\nsamples = 9\nvalue = [8, 1, 0, 0, 1]\nclass = c", fillcolor="#eb9d65"] ;
560 -> 561 ;
562 [label="entropy = 0.37\nsamples = 9\nvalue = [1, 0, 0, 0, 13]\nclass = t", fillcolor="#e748c5"] ;
560 -> 562 ;
563 [label="entropy = 0.0\nsamples = 22\nvalue = [0, 0, 0, 0, 40]\nclass = t", fillcolor="#e539c0"] ;
551 -> 563 ;
564 [label="30's_sales_rate <= 1.07\nentropy = 0.9\nsamples = 22\nvalue = [29, 4, 0, 0, 3]\nclass = c", fillcolor="#eb9d64"] ;
550 -> 564 ;
565 [label="40's_sales_rate <= 0.27\nentropy = 0.45\nsamples = 20\nvalue = [29, 0, 0, 0, 3]\nclass = c", fillcolor="#e88e4d"] ;
564 -> 565 ;
566 [label="40's_sales_rate <= 0.14\nentropy = 0.24\nsamples = 13\nvalue = [24, 0, 0, 0, 1]\nclass = c", fillcolor="#e68641"] ;
565 -> 566 ;
567 [label="30's_sales_rate <= 0.46\nentropy = 0.5\nsamples = 5\nvalue = [8, 0, 0, 0, 1]\nclass = c", fillcolor="#e89152"] ;
566 -> 567 ;
568 [label="entropy = 0.0\nsamples = 1\nvalue = [0, 0, 0, 0, 1]\nclass = t", fillcolor="#e539c0"] ;
567 -> 568 ;
569 [label="entropy = 0.0\nsamples = 4\nvalue = [8, 0, 0, 0, 0]\nclass = c", fillcolor="#e58139"] ;
567 -> 569 ;
570 [label="entropy = 0.0\nsamples = 8\nvalue = [16, 0, 0, 0, 0]\nclass = c", fillcolor="#e58139"] ;
566 -> 570 ;
571 [label="30's_sales_rate <= 0.24\nentropy = 0.86\nsamples = 7\nvalue = [5, 0, 0, 0, 2]\nclass = c", fillcolor="#efb388"] ;
565 -> 571 ;
572 [label="entropy = 0.0\nsamples = 2\nvalue = [0, 0, 0, 0, 2]\nclass = t", fillcolor="#e539c0"] ;
571 -> 572 ;
573 [label="entropy = 0.0\nsamples = 5\nvalue = [5, 0, 0, 0, 0]\nclass = c", fillcolor="#e58139"] ;
571 -> 573 ;
574 [label="entropy = 0.0\nsamples = 2\nvalue = [0, 4, 0, 0, 0]\nclass = l", fillcolor="#7be539"] ;
564 -> 574 ;
575 [label="20's_sales_rate <= -1.0\nentropy = 0.79\nsamples = 256\nvalue = [5, 72, 0, 0, 312]\nclass = t", fillcolor="#eb69cf"] ;
531 -> 575 ;
576 [label="40's_sales_rate <= 0.74\nentropy = 0.92\nsamples = 125\nvalue = [0, 64, 0, 0, 127]\nclass = t", fillcolor="#f29de0"] ;
575 -> 576 ;
577 [label="30's_sales_rate <= 1.11\nentropy = 0.89\nsamples = 122\nvalue = [0, 56, 0, 0, 127]\nclass = t", fillcolor="#f090dc"] ;
576 -> 577 ;
578 [label="60's_sales_rate <= 1.17\nentropy = 0.17\nsamples = 74\nvalue = [0, 3, 0, 0, 116]\nclass = t", fillcolor="#e63ec2"] ;
577 -> 578 ;
579 [label="60's_sales_rate <= 1.14\nentropy = 0.31\nsamples = 36\nvalue = [0, 3, 0, 0, 52]\nclass = t", fillcolor="#e644c4"] ;
578 -> 579 ;
580 [label="30's_sales_rate <= 0.98\nentropy = 0.14\nsamples = 35\nvalue = [0, 1, 0, 0, 52]\nclass = t", fillcolor="#e63dc1"] ;
579 -> 580 ;
581 [label="entropy = 0.0\nsamples = 30\nvalue = [0, 0, 0, 0, 44]\nclass = t", fillcolor="#e539c0"] ;
580 -> 581 ;
582 [label="entropy = 0.5\nsamples = 5\nvalue = [0, 1, 0, 0, 8]\nclass = t", fillcolor="#e852c8"] ;
580 -> 582 ;
583 [label="entropy = 0.0\nsamples = 1\nvalue = [0, 2, 0, 0, 0]\nclass = l", fillcolor="#7be539"] ;
579 -> 583 ;
584 [label="entropy = 0.0\nsamples = 38\nvalue = [0, 0, 0, 0, 64]\nclass = t", fillcolor="#e539c0"] ;
578 -> 584 ;
585 [label="50's_sales_rate <= -0.17\nentropy = 0.66\nsamples = 48\nvalue = [0, 53, 0, 0, 11]\nclass = l", fillcolor="#96ea62"] ;
577 -> 585 ;
586 [label="40's_sales_rate <= -0.97\nentropy = 0.44\nsamples = 41\nvalue = [0, 50, 0, 0, 5]\nclass = l", fillcolor="#88e84d"] ;
585 -> 586 ;
587 [label="60's_sales_rate <= 2.55\nentropy = 0.58\nsamples = 26\nvalue = [0, 31, 0, 0, 5]\nclass = l", fillcolor="#90e959"] ;
586 -> 587 ;
588 [label="entropy = 0.0\nsamples = 21\nvalue = [0, 31, 0, 0, 0]\nclass = l", fillcolor="#7be539"] ;
587 -> 588 ;
589 [label="entropy = 0.0\nsamples = 5\nvalue = [0, 0, 0, 0, 5]\nclass = t", fillcolor="#e539c0"] ;
587 -> 589 ;
590 [label="entropy = 0.0\nsamples = 15\nvalue = [0, 19, 0, 0, 0]\nclass = l", fillcolor="#7be539"] ;
586 -> 590 ;
591 [label="60's_sales_rate <= 0.77\nentropy = 0.92\nsamples = 7\nvalue = [0, 3, 0, 0, 6]\nclass = t", fillcolor="#f29ce0"] ;
585 -> 591 ;
592 [label="60's_sales_rate <= 0.4\nentropy = 0.81\nsamples = 3\nvalue = [0, 3, 0, 0, 1]\nclass = l", fillcolor="#a7ee7b"] ;
591 -> 592 ;
593 [label="entropy = 0.0\nsamples = 1\nvalue = [0, 2, 0, 0, 0]\nclass = l", fillcolor="#7be539"] ;
592 -> 593 ;
594 [label="entropy = 1.0\nsamples = 2\nvalue = [0, 1, 0, 0, 1]\nclass = l", fillcolor="#ffffff"] ;
592 -> 594 ;
595 [label="entropy = 0.0\nsamples = 4\nvalue = [0, 0, 0, 0, 5]\nclass = t", fillcolor="#e539c0"] ;
591 -> 595 ;
596 [label="entropy = 0.0\nsamples = 3\nvalue = [0, 8, 0, 0, 0]\nclass = l", fillcolor="#7be539"] ;
576 -> 596 ;
597 [label="30's_sales_rate <= 0.92\nentropy = 0.41\nsamples = 131\nvalue = [5, 8, 0, 0, 185]\nclass = t", fillcolor="#e747c4"] ;
575 -> 597 ;
598 [label="20's_sales_rate <= -0.6\nentropy = 0.09\nsamples = 120\nvalue = [2, 0, 0, 0, 183]\nclass = t", fillcolor="#e53bc1"] ;
597 -> 598 ;
599 [label="entropy = 0.0\nsamples = 89\nvalue = [0, 0, 0, 0, 138]\nclass = t", fillcolor="#e539c0"] ;
598 -> 599 ;
600 [label="30's_sales_rate <= 0.5\nentropy = 0.25\nsamples = 31\nvalue = [2, 0, 0, 0, 45]\nclass = t", fillcolor="#e642c3"] ;
598 -> 600 ;
601 [label="entropy = 0.0\nsamples = 24\nvalue = [0, 0, 0, 0, 35]\nclass = t", fillcolor="#e539c0"] ;
600 -> 601 ;
602 [label="20's_sales_rate <= -0.59\nentropy = 0.65\nsamples = 7\nvalue = [2, 0, 0, 0, 10]\nclass = t", fillcolor="#ea61cd"] ;
600 -> 602 ;
603 [label="entropy = 0.0\nsamples = 1\nvalue = [2, 0, 0, 0, 0]\nclass = c", fillcolor="#e58139"] ;
602 -> 603 ;
604 [label="entropy = 0.0\nsamples = 6\nvalue = [0, 0, 0, 0, 10]\nclass = t", fillcolor="#e539c0"] ;
602 -> 604 ;
605 [label="60's_sales_rate <= 0.5\nentropy = 1.33\nsamples = 11\nvalue = [3, 8, 0, 0, 2]\nclass = l", fillcolor="#bdf29c"] ;
597 -> 605 ;
606 [label="simillar_store_number <= 0.24\nentropy = 1.45\nsamples = 6\nvalue = [3, 3, 0, 0, 1]\nclass = c", fillcolor="#ffffff"] ;
605 -> 606 ;
607 [label="60's_sales_rate <= 0.36\nentropy = 1.0\nsamples = 5\nvalue = [3, 3, 0, 0, 0]\nclass = c", fillcolor="#ffffff"] ;
606 -> 607 ;
608 [label="entropy = 0.0\nsamples = 2\nvalue = [0, 2, 0, 0, 0]\nclass = l", fillcolor="#7be539"] ;
607 -> 608 ;
609 [label="simillar_store_number <= -0.42\nentropy = 0.81\nsamples = 3\nvalue = [3, 1, 0, 0, 0]\nclass = c", fillcolor="#eeab7b"] ;
607 -> 609 ;
610 [label="entropy = 0.92\nsamples = 2\nvalue = [2, 1, 0, 0, 0]\nclass = c", fillcolor="#f2c09c"] ;
609 -> 610 ;
611 [label="entropy = 0.0\nsamples = 1\nvalue = [1, 0, 0, 0, 0]\nclass = c", fillcolor="#e58139"] ;
609 -> 611 ;
612 [label="entropy = 0.0\nsamples = 1\nvalue = [0, 0, 0, 0, 1]\nclass = t", fillcolor="#e539c0"] ;
606 -> 612 ;
613 [label="30's_sales_rate <= 1.06\nentropy = 0.65\nsamples = 5\nvalue = [0, 5, 0, 0, 1]\nclass = l", fillcolor="#95ea61"] ;
605 -> 613 ;
614 [label="simillar_store_number <= -0.42\nentropy = 1.0\nsamples = 2\nvalue = [0, 1, 0, 0, 1]\nclass = l", fillcolor="#ffffff"] ;
613 -> 614 ;
615 [label="entropy = 0.0\nsamples = 1\nvalue = [0, 0, 0, 0, 1]\nclass = t", fillcolor="#e539c0"] ;
614 -> 615 ;
616 [label="entropy = 0.0\nsamples = 1\nvalue = [0, 1, 0, 0, 0]\nclass = l", fillcolor="#7be539"] ;
614 -> 616 ;
617 [label="entropy = 0.0\nsamples = 3\nvalue = [0, 4, 0, 0, 0]\nclass = l", fillcolor="#7be539"] ;
613 -> 617 ;
618 [label="30's_sales_rate <= 1.33\nentropy = 0.93\nsamples = 1212\nvalue = [1507, 354, 0, 0, 87]\nclass = c", fillcolor="#eca470"] ;
484 -> 618 ;
619 [label="60's_sales_rate <= 0.12\nentropy = 0.43\nsamples = 949\nvalue = [1434, 26, 0, 0, 87]\nclass = c", fillcolor="#e78b48"] ;
618 -> 619 ;
620 [label="30's_sales_rate <= 1.05\nentropy = 0.31\nsamples = 845\nvalue = [1321, 26, 0, 0, 37]\nclass = c", fillcolor="#e68742"] ;
619 -> 620 ;
621 [label="30's_sales_rate <= 0.36\nentropy = 0.2\nsamples = 720\nvalue = [1145, 0, 0, 0, 37]\nclass = c", fillcolor="#e6853f"] ;
620 -> 621 ;
622 [label="30's_sales_rate <= 0.34\nentropy = 0.42\nsamples = 202\nvalue = [301, 0, 0, 0, 28]\nclass = c", fillcolor="#e78d4b"] ;
621 -> 622 ;
623 [label="30's_sales_rate <= 0.12\nentropy = 0.38\nsamples = 184\nvalue = [281, 0, 0, 0, 22]\nclass = c", fillcolor="#e78b49"] ;
622 -> 623 ;
624 [label="entropy = 0.0\nsamples = 8\nvalue = [20, 0, 0, 0, 0]\nclass = c", fillcolor="#e58139"] ;
623 -> 624 ;
625 [label="20's_sales_rate <= -0.26\nentropy = 0.39\nsamples = 176\nvalue = [261, 0, 0, 0, 22]\nclass = c", fillcolor="#e78c4a"] ;
623 -> 625 ;
626 [label="40's_sales_rate <= 0.17\nentropy = 0.95\nsamples = 22\nvalue = [25, 0, 0, 0, 15]\nclass = c", fillcolor="#f5cdb0"] ;
625 -> 626 ;
627 [label="entropy = 0.52\nsamples = 10\nvalue = [2, 0, 0, 0, 15]\nclass = t", fillcolor="#e853c8"] ;
626 -> 627 ;
628 [label="entropy = 0.0\nsamples = 12\nvalue = [23, 0, 0, 0, 0]\nclass = c", fillcolor="#e58139"] ;
626 -> 628 ;
629 [label="50's_sales_rate <= 0.54\nentropy = 0.19\nsamples = 154\nvalue = [236, 0, 0, 0, 7]\nclass = c", fillcolor="#e6853f"] ;
625 -> 629 ;
630 [label="entropy = 0.0\nsamples = 137\nvalue = [219, 0, 0, 0, 0]\nclass = c", fillcolor="#e58139"] ;
629 -> 630 ;
631 [label="entropy = 0.87\nsamples = 17\nvalue = [17, 0, 0, 0, 7]\nclass = c", fillcolor="#f0b58b"] ;
629 -> 631 ;
632 [label="50's_sales_rate <= 0.27\nentropy = 0.78\nsamples = 18\nvalue = [20, 0, 0, 0, 6]\nclass = c", fillcolor="#eda774"] ;
622 -> 632 ;
633 [label="entropy = 0.0\nsamples = 13\nvalue = [18, 0, 0, 0, 0]\nclass = c", fillcolor="#e58139"] ;
632 -> 633 ;
634 [label="40's_sales_rate <= -1.17\nentropy = 0.81\nsamples = 5\nvalue = [2, 0, 0, 0, 6]\nclass = t", fillcolor="#ee7bd5"] ;
632 -> 634 ;
635 [label="entropy = 0.0\nsamples = 1\nvalue = [2, 0, 0, 0, 0]\nclass = c", fillcolor="#e58139"] ;
634 -> 635 ;
636 [label="entropy = 0.0\nsamples = 4\nvalue = [0, 0, 0, 0, 6]\nclass = t", fillcolor="#e539c0"] ;
634 -> 636 ;
637 [label="50's_sales_rate <= 0.9\nentropy = 0.08\nsamples = 518\nvalue = [844, 0, 0, 0, 9]\nclass = c", fillcolor="#e5823b"] ;
621 -> 637 ;
638 [label="entropy = 0.0\nsamples = 508\nvalue = [836, 0, 0, 0, 0]\nclass = c", fillcolor="#e58139"] ;
637 -> 638 ;
639 [label="40's_sales_rate <= -0.65\nentropy = 1.0\nsamples = 10\nvalue = [8, 0, 0, 0, 9]\nclass = t", fillcolor="#fce9f8"] ;
637 -> 639 ;
640 [label="30's_sales_rate <= 0.67\nentropy = 0.81\nsamples = 6\nvalue = [3, 0, 0, 0, 9]\nclass = t", fillcolor="#ee7bd5"] ;
639 -> 640 ;
641 [label="50's_sales_rate <= 1.94\nentropy = 0.97\nsamples = 3\nvalue = [3, 0, 0, 0, 2]\nclass = c", fillcolor="#f6d5bd"] ;
640 -> 641 ;
642 [label="entropy = 0.0\nsamples = 2\nvalue = [3, 0, 0, 0, 0]\nclass = c", fillcolor="#e58139"] ;
641 -> 642 ;
643 [label="entropy = 0.0\nsamples = 1\nvalue = [0, 0, 0, 0, 2]\nclass = t", fillcolor="#e539c0"] ;
641 -> 643 ;
644 [label="entropy = 0.0\nsamples = 3\nvalue = [0, 0, 0, 0, 7]\nclass = t", fillcolor="#e539c0"] ;
640 -> 644 ;
645 [label="entropy = 0.0\nsamples = 4\nvalue = [5, 0, 0, 0, 0]\nclass = c", fillcolor="#e58139"] ;
639 -> 645 ;
646 [label="30's_sales_rate <= 1.17\nentropy = 0.55\nsamples = 125\nvalue = [176, 26, 0, 0, 0]\nclass = c", fillcolor="#e99456"] ;
620 -> 646 ;
647 [label="40's_sales_rate <= 0.41\nentropy = 0.3\nsamples = 61\nvalue = [90, 5, 0, 0, 0]\nclass = c", fillcolor="#e68844"] ;
646 -> 647 ;
648 [label="20's_sales_rate <= -0.3\nentropy = 0.09\nsamples = 57\nvalue = [90, 1, 0, 0, 0]\nclass = c", fillcolor="#e5823b"] ;
647 -> 648 ;
649 [label="30's_sales_rate <= 1.11\nentropy = 0.81\nsamples = 3\nvalue = [3, 1, 0, 0, 0]\nclass = c", fillcolor="#eeab7b"] ;
648 -> 649 ;
650 [label="entropy = 0.0\nsamples = 2\nvalue = [3, 0, 0, 0, 0]\nclass = c", fillcolor="#e58139"] ;
649 -> 650 ;
651 [label="entropy = 0.0\nsamples = 1\nvalue = [0, 1, 0, 0, 0]\nclass = l", fillcolor="#7be539"] ;
649 -> 651 ;
652 [label="entropy = 0.0\nsamples = 54\nvalue = [87, 0, 0, 0, 0]\nclass = c", fillcolor="#e58139"] ;
648 -> 652 ;
653 [label="entropy = 0.0\nsamples = 4\nvalue = [0, 4, 0, 0, 0]\nclass = l", fillcolor="#7be539"] ;
647 -> 653 ;
654 [label="60's_sales_rate <= -0.13\nentropy = 0.71\nsamples = 64\nvalue = [86, 21, 0, 0, 0]\nclass = c", fillcolor="#eba069"] ;
646 -> 654 ;
655 [label="40's_sales_rate <= -0.04\nentropy = 0.68\nsamples = 62\nvalue = [86, 19, 0, 0, 0]\nclass = c", fillcolor="#eb9d65"] ;
654 -> 655 ;
656 [label="50's_sales_rate <= -0.19\nentropy = 0.1\nsamples = 46\nvalue = [78, 1, 0, 0, 0]\nclass = c", fillcolor="#e5833c"] ;
655 -> 656 ;
657 [label="entropy = 0.0\nsamples = 38\nvalue = [67, 0, 0, 0, 0]\nclass = c", fillcolor="#e58139"] ;
656 -> 657 ;
658 [label="20's_sales_rate <= -0.29\nentropy = 0.41\nsamples = 8\nvalue = [11, 1, 0, 0, 0]\nclass = c", fillcolor="#e78c4b"] ;
656 -> 658 ;
659 [label="entropy = 0.0\nsamples = 1\nvalue = [0, 1, 0, 0, 0]\nclass = l", fillcolor="#7be539"] ;
658 -> 659 ;
660 [label="entropy = 0.0\nsamples = 7\nvalue = [11, 0, 0, 0, 0]\nclass = c", fillcolor="#e58139"] ;
658 -> 660 ;
661 [label="20's_sales_rate <= 0.06\nentropy = 0.89\nsamples = 16\nvalue = [8, 18, 0, 0, 0]\nclass = l", fillcolor="#b6f191"] ;
655 -> 661 ;
662 [label="entropy = 0.0\nsamples = 11\nvalue = [0, 16, 0, 0, 0]\nclass = l", fillcolor="#7be539"] ;
661 -> 662 ;
663 [label="50's_sales_rate <= -0.97\nentropy = 0.72\nsamples = 5\nvalue = [8, 2, 0, 0, 0]\nclass = c", fillcolor="#eca06a"] ;
661 -> 663 ;
664 [label="entropy = 0.97\nsamples = 3\nvalue = [3, 2, 0, 0, 0]\nclass = c", fillcolor="#f6d5bd"] ;
663 -> 664 ;
665 [label="entropy = 0.0\nsamples = 2\nvalue = [5, 0, 0, 0, 0]\nclass = c", fillcolor="#e58139"] ;
663 -> 665 ;
666 [label="entropy = 0.0\nsamples = 2\nvalue = [0, 2, 0, 0, 0]\nclass = l", fillcolor="#7be539"] ;
654 -> 666 ;
667 [label="50's_sales_rate <= 0.32\nentropy = 0.89\nsamples = 104\nvalue = [113, 0, 0, 0, 50]\nclass = c", fillcolor="#f1b991"] ;
619 -> 667 ;
668 [label="40's_sales_rate <= 0.09\nentropy = 0.74\nsamples = 90\nvalue = [112, 0, 0, 0, 30]\nclass = c", fillcolor="#eca36e"] ;
667 -> 668 ;
669 [label="60's_sales_rate <= 0.49\nentropy = 0.81\nsamples = 77\nvalue = [89, 0, 0, 0, 30]\nclass = c", fillcolor="#eeab7c"] ;
668 -> 669 ;
670 [label="30's_sales_rate <= 0.39\nentropy = 0.43\nsamples = 47\nvalue = [62, 0, 0, 0, 6]\nclass = c", fillcolor="#e88d4c"] ;
669 -> 670 ;
671 [label="20's_sales_rate <= -0.19\nentropy = 0.67\nsamples = 25\nvalue = [28, 0, 0, 0, 6]\nclass = c", fillcolor="#eb9c63"] ;
670 -> 671 ;
672 [label="30's_sales_rate <= 0.28\nentropy = 0.59\nsamples = 6\nvalue = [1, 0, 0, 0, 6]\nclass = t", fillcolor="#e95acb"] ;
671 -> 672 ;
673 [label="entropy = 0.0\nsamples = 4\nvalue = [0, 0, 0, 0, 5]\nclass = t", fillcolor="#e539c0"] ;
672 -> 673 ;
674 [label="entropy = 1.0\nsamples = 2\nvalue = [1, 0, 0, 0, 1]\nclass = c", fillcolor="#ffffff"] ;
672 -> 674 ;
675 [label="entropy = 0.0\nsamples = 19\nvalue = [27, 0, 0, 0, 0]\nclass = c", fillcolor="#e58139"] ;
671 -> 675 ;
676 [label="entropy = 0.0\nsamples = 22\nvalue = [34, 0, 0, 0, 0]\nclass = c", fillcolor="#e58139"] ;
670 -> 676 ;
677 [label="50's_sales_rate <= -0.64\nentropy = 1.0\nsamples = 30\nvalue = [27, 0, 0, 0, 24]\nclass = c", fillcolor="#fcf1e9"] ;
669 -> 677 ;
678 [label="30's_sales_rate <= 0.27\nentropy = 0.41\nsamples = 14\nvalue = [22, 0, 0, 0, 2]\nclass = c", fillcolor="#e78c4b"] ;
677 -> 678 ;
679 [label="entropy = 0.0\nsamples = 1\nvalue = [0, 0, 0, 0, 2]\nclass = t", fillcolor="#e539c0"] ;
678 -> 679 ;
680 [label="entropy = 0.0\nsamples = 13\nvalue = [22, 0, 0, 0, 0]\nclass = c", fillcolor="#e58139"] ;
678 -> 680 ;
681 [label="40's_sales_rate <= -0.96\nentropy = 0.69\nsamples = 16\nvalue = [5, 0, 0, 0, 22]\nclass = t", fillcolor="#eb66ce"] ;
677 -> 681 ;
682 [label="50's_sales_rate <= 0.03\nentropy = 1.0\nsamples = 4\nvalue = [3, 0, 0, 0, 3]\nclass = c", fillcolor="#ffffff"] ;
681 -> 682 ;
683 [label="entropy = 0.0\nsamples = 2\nvalue = [0, 0, 0, 0, 3]\nclass = t", fillcolor="#e539c0"] ;
682 -> 683 ;
684 [label="entropy = 0.0\nsamples = 2\nvalue = [3, 0, 0, 0, 0]\nclass = c", fillcolor="#e58139"] ;
682 -> 684 ;
685 [label="60's_sales_rate <= 0.56\nentropy = 0.45\nsamples = 12\nvalue = [2, 0, 0, 0, 19]\nclass = t", fillcolor="#e84ec7"] ;
681 -> 685 ;
686 [label="entropy = 1.0\nsamples = 3\nvalue = [2, 0, 0, 0, 2]\nclass = c", fillcolor="#ffffff"] ;
685 -> 686 ;
687 [label="entropy = 0.0\nsamples = 9\nvalue = [0, 0, 0, 0, 17]\nclass = t", fillcolor="#e539c0"] ;
685 -> 687 ;
688 [label="entropy = 0.0\nsamples = 13\nvalue = [23, 0, 0, 0, 0]\nclass = c", fillcolor="#e58139"] ;
668 -> 688 ;
689 [label="30's_sales_rate <= 0.16\nentropy = 0.28\nsamples = 14\nvalue = [1, 0, 0, 0, 20]\nclass = t", fillcolor="#e643c3"] ;
667 -> 689 ;
690 [label="entropy = 0.0\nsamples = 1\nvalue = [1, 0, 0, 0, 0]\nclass = c", fillcolor="#e58139"] ;
689 -> 690 ;
691 [label="entropy = 0.0\nsamples = 13\nvalue = [0, 0, 0, 0, 20]\nclass = t", fillcolor="#e539c0"] ;
689 -> 691 ;
692 [label="20's_sales_rate <= 1.04\nentropy = 0.68\nsamples = 263\nvalue = [73, 328, 0, 0, 0]\nclass = l", fillcolor="#98eb65"] ;
618 -> 692 ;
693 [label="20's_sales_rate <= 0.04\nentropy = 0.34\nsamples = 226\nvalue = [22, 324, 0, 0, 0]\nclass = l", fillcolor="#84e746"] ;
692 -> 693 ;
694 [label="40's_sales_rate <= -1.21\nentropy = 0.05\nsamples = 118\nvalue = [1, 191, 0, 0, 0]\nclass = l", fillcolor="#7ce53a"] ;
693 -> 694 ;
695 [label="50's_sales_rate <= 0.56\nentropy = 0.26\nsamples = 15\nvalue = [1, 22, 0, 0, 0]\nclass = l", fillcolor="#81e642"] ;
694 -> 695 ;
696 [label="entropy = 0.0\nsamples = 13\nvalue = [0, 21, 0, 0, 0]\nclass = l", fillcolor="#7be539"] ;
695 -> 696 ;
697 [label="50's_sales_rate <= 0.6\nentropy = 1.0\nsamples = 2\nvalue = [1, 1, 0, 0, 0]\nclass = c", fillcolor="#ffffff"] ;
695 -> 697 ;
698 [label="entropy = 0.0\nsamples = 1\nvalue = [1, 0, 0, 0, 0]\nclass = c", fillcolor="#e58139"] ;
697 -> 698 ;
699 [label="entropy = 0.0\nsamples = 1\nvalue = [0, 1, 0, 0, 0]\nclass = l", fillcolor="#7be539"] ;
697 -> 699 ;
700 [label="entropy = 0.0\nsamples = 103\nvalue = [0, 169, 0, 0, 0]\nclass = l", fillcolor="#7be539"] ;
694 -> 700 ;
701 [label="30's_sales_rate <= 1.4\nentropy = 0.57\nsamples = 108\nvalue = [21, 133, 0, 0, 0]\nclass = l", fillcolor="#90e958"] ;
693 -> 701 ;
702 [label="simillar_store_number <= 0.37\nentropy = 0.35\nsamples = 12\nvalue = [14, 1, 0, 0, 0]\nclass = c", fillcolor="#e78a47"] ;
701 -> 702 ;
703 [label="entropy = 0.0\nsamples = 10\nvalue = [13, 0, 0, 0, 0]\nclass = c", fillcolor="#e58139"] ;
702 -> 703 ;
704 [label="60's_sales_rate <= -0.74\nentropy = 1.0\nsamples = 2\nvalue = [1, 1, 0, 0, 0]\nclass = c", fillcolor="#ffffff"] ;
702 -> 704 ;
705 [label="entropy = 0.0\nsamples = 1\nvalue = [1, 0, 0, 0, 0]\nclass = c", fillcolor="#e58139"] ;
704 -> 705 ;
706 [label="entropy = 0.0\nsamples = 1\nvalue = [0, 1, 0, 0, 0]\nclass = l", fillcolor="#7be539"] ;
704 -> 706 ;
707 [label="30's_sales_rate <= 1.75\nentropy = 0.29\nsamples = 96\nvalue = [7, 132, 0, 0, 0]\nclass = l", fillcolor="#82e644"] ;
701 -> 707 ;
708 [label="60's_sales_rate <= 0.05\nentropy = 0.62\nsamples = 31\nvalue = [7, 38, 0, 0, 0]\nclass = l", fillcolor="#93ea5d"] ;
707 -> 708 ;
709 [label="60's_sales_rate <= -0.74\nentropy = 0.57\nsamples = 30\nvalue = [6, 38, 0, 0, 0]\nclass = l", fillcolor="#90e958"] ;
708 -> 709 ;
710 [label="40's_sales_rate <= -0.79\nentropy = 0.79\nsamples = 15\nvalue = [5, 16, 0, 0, 0]\nclass = l", fillcolor="#a4ed77"] ;
709 -> 710 ;
711 [label="entropy = 0.0\nsamples = 3\nvalue = [4, 0, 0, 0, 0]\nclass = c", fillcolor="#e58139"] ;
710 -> 711 ;
712 [label="entropy = 0.32\nsamples = 12\nvalue = [1, 16, 0, 0, 0]\nclass = l", fillcolor="#83e745"] ;
710 -> 712 ;
713 [label="50's_sales_rate <= -0.75\nentropy = 0.26\nsamples = 15\nvalue = [1, 22, 0, 0, 0]\nclass = l", fillcolor="#81e642"] ;
709 -> 713 ;
714 [label="entropy = 0.0\nsamples = 10\nvalue = [0, 16, 0, 0, 0]\nclass = l", fillcolor="#7be539"] ;
713 -> 714 ;
715 [label="entropy = 0.59\nsamples = 5\nvalue = [1, 6, 0, 0, 0]\nclass = l", fillcolor="#91e95a"] ;
713 -> 715 ;
716 [label="entropy = 0.0\nsamples = 1\nvalue = [1, 0, 0, 0, 0]\nclass = c", fillcolor="#e58139"] ;
708 -> 716 ;
717 [label="entropy = 0.0\nsamples = 65\nvalue = [0, 94, 0, 0, 0]\nclass = l", fillcolor="#7be539"] ;
707 -> 717 ;
718 [label="20's_sales_rate <= 1.53\nentropy = 0.38\nsamples = 37\nvalue = [51, 4, 0, 0, 0]\nclass = c", fillcolor="#e78b49"] ;
692 -> 718 ;
719 [label="simillar_store_number <= 0.11\nentropy = 0.65\nsamples = 16\nvalue = [20, 4, 0, 0, 0]\nclass = c", fillcolor="#ea9a61"] ;
718 -> 719 ;
720 [label="60's_sales_rate <= -0.84\nentropy = 0.72\nsamples = 14\nvalue = [16, 4, 0, 0, 0]\nclass = c", fillcolor="#eca06a"] ;
719 -> 720 ;
721 [label="simillar_store_number <= -0.42\nentropy = 0.95\nsamples = 8\nvalue = [7, 4, 0, 0, 0]\nclass = c", fillcolor="#f4c9aa"] ;
720 -> 721 ;
722 [label="20's_sales_rate <= 1.43\nentropy = 0.97\nsamples = 4\nvalue = [3, 2, 0, 0, 0]\nclass = c", fillcolor="#f6d5bd"] ;
721 -> 722 ;
723 [label="entropy = 0.0\nsamples = 2\nvalue = [3, 0, 0, 0, 0]\nclass = c", fillcolor="#e58139"] ;
722 -> 723 ;
724 [label="entropy = 0.0\nsamples = 2\nvalue = [0, 2, 0, 0, 0]\nclass = l", fillcolor="#7be539"] ;
722 -> 724 ;
725 [label="30's_sales_rate <= 2.01\nentropy = 0.92\nsamples = 4\nvalue = [4, 2, 0, 0, 0]\nclass = c", fillcolor="#f2c09c"] ;
721 -> 725 ;
726 [label="entropy = 0.0\nsamples = 2\nvalue = [4, 0, 0, 0, 0]\nclass = c", fillcolor="#e58139"] ;
725 -> 726 ;
727 [label="entropy = 0.0\nsamples = 2\nvalue = [0, 2, 0, 0, 0]\nclass = l", fillcolor="#7be539"] ;
725 -> 727 ;
728 [label="entropy = 0.0\nsamples = 6\nvalue = [9, 0, 0, 0, 0]\nclass = c", fillcolor="#e58139"] ;
720 -> 728 ;
729 [label="entropy = 0.0\nsamples = 2\nvalue = [4, 0, 0, 0, 0]\nclass = c", fillcolor="#e58139"] ;
719 -> 729 ;
730 [label="entropy = 0.0\nsamples = 21\nvalue = [31, 0, 0, 0, 0]\nclass = c", fillcolor="#e58139"] ;
718 -> 730 ;
731 [label="20's_sales_rate <= -0.43\nentropy = 1.04\nsamples = 266\nvalue = [13, 118, 290, 0, 0]\nclass = u", fillcolor="#8ff0de"] ;
483 -> 731 ;
732 [label="40's_sales_rate <= 1.74\nentropy = 0.86\nsamples = 256\nvalue = [0, 116, 289, 0, 0]\nclass = u", fillcolor="#88efdc"] ;
731 -> 732 ;
733 [label="60's_sales_rate <= -0.55\nentropy = 1.0\nsamples = 148\nvalue = [0, 116, 123, 0, 0]\nclass = u", fillcolor="#f4fefc"] ;
732 -> 733 ;
734 [label="60's_sales_rate <= -0.83\nentropy = 0.96\nsamples = 115\nvalue = [0, 112, 68, 0, 0]\nclass = l", fillcolor="#cbf5b1"] ;
733 -> 734 ;
735 [label="30's_sales_rate <= 1.02\nentropy = 0.94\nsamples = 98\nvalue = [0, 101, 55, 0, 0]\nclass = l", fillcolor="#c3f3a5"] ;
734 -> 735 ;
736 [label="simillar_store_number <= -0.42\nentropy = 0.29\nsamples = 36\nvalue = [0, 3, 55, 0, 0]\nclass = u", fillcolor="#44e6c8"] ;
735 -> 736 ;
737 [label="30's_sales_rate <= 0.78\nentropy = 0.57\nsamples = 9\nvalue = [0, 2, 13, 0, 0]\nclass = u", fillcolor="#57e9ce"] ;
736 -> 737 ;
738 [label="entropy = 0.0\nsamples = 8\nvalue = [0, 0, 13, 0, 0]\nclass = u", fillcolor="#39e5c5"] ;
737 -> 738 ;
739 [label="entropy = 0.0\nsamples = 1\nvalue = [0, 2, 0, 0, 0]\nclass = l", fillcolor="#7be539"] ;
737 -> 739 ;
740 [label="simillar_store_number <= 0.37\nentropy = 0.16\nsamples = 27\nvalue = [0, 1, 42, 0, 0]\nclass = u", fillcolor="#3ee6c6"] ;
736 -> 740 ;
741 [label="entropy = 0.0\nsamples = 18\nvalue = [0, 0, 31, 0, 0]\nclass = u", fillcolor="#39e5c5"] ;
740 -> 741 ;
742 [label="20's_sales_rate <= -0.6\nentropy = 0.41\nsamples = 9\nvalue = [0, 1, 11, 0, 0]\nclass = u", fillcolor="#4be7ca"] ;
740 -> 742 ;
743 [label="entropy = 0.0\nsamples = 7\nvalue = [0, 0, 10, 0, 0]\nclass = u", fillcolor="#39e5c5"] ;
742 -> 743 ;
744 [label="simillar_store_number <= 1.55\nentropy = 1.0\nsamples = 2\nvalue = [0, 1, 1, 0, 0]\nclass = l", fillcolor="#ffffff"] ;
742 -> 744 ;
745 [label="entropy = 0.0\nsamples = 1\nvalue = [0, 1, 0, 0, 0]\nclass = l", fillcolor="#7be539"] ;
744 -> 745 ;
746 [label="entropy = 0.0\nsamples = 1\nvalue = [0, 0, 1, 0, 0]\nclass = u", fillcolor="#39e5c5"] ;
744 -> 746 ;
747 [label="entropy = 0.0\nsamples = 62\nvalue = [0, 98, 0, 0, 0]\nclass = l", fillcolor="#7be539"] ;
735 -> 747 ;
748 [label="60's_sales_rate <= -0.79\nentropy = 0.99\nsamples = 17\nvalue = [0, 11, 13, 0, 0]\nclass = u", fillcolor="#e1fbf6"] ;
734 -> 748 ;
749 [label="entropy = 0.0\nsamples = 1\nvalue = [0, 0, 2, 0, 0]\nclass = u", fillcolor="#39e5c5"] ;
748 -> 749 ;
750 [label="30's_sales_rate <= 1.16\nentropy = 1.0\nsamples = 16\nvalue = [0, 11, 11, 0, 0]\nclass = l", fillcolor="#ffffff"] ;
748 -> 750 ;
751 [label="20's_sales_rate <= -0.53\nentropy = 0.62\nsamples = 11\nvalue = [0, 2, 11, 0, 0]\nclass = u", fillcolor="#5dead0"] ;
750 -> 751 ;
752 [label="30's_sales_rate <= 0.8\nentropy = 0.41\nsamples = 10\nvalue = [0, 1, 11, 0, 0]\nclass = u", fillcolor="#4be7ca"] ;
751 -> 752 ;
753 [label="entropy = 0.0\nsamples = 6\nvalue = [0, 0, 8, 0, 0]\nclass = u", fillcolor="#39e5c5"] ;
752 -> 753 ;
754 [label="30's_sales_rate <= 1.03\nentropy = 0.81\nsamples = 4\nvalue = [0, 1, 3, 0, 0]\nclass = u", fillcolor="#7beed8"] ;
752 -> 754 ;
755 [label="entropy = 1.0\nsamples = 2\nvalue = [0, 1, 1, 0, 0]\nclass = l", fillcolor="#ffffff"] ;
754 -> 755 ;
756 [label="entropy = 0.0\nsamples = 2\nvalue = [0, 0, 2, 0, 0]\nclass = u", fillcolor="#39e5c5"] ;
754 -> 756 ;
757 [label="entropy = 0.0\nsamples = 1\nvalue = [0, 1, 0, 0, 0]\nclass = l", fillcolor="#7be539"] ;
751 -> 757 ;
758 [label="entropy = 0.0\nsamples = 5\nvalue = [0, 9, 0, 0, 0]\nclass = l", fillcolor="#7be539"] ;
750 -> 758 ;
759 [label="30's_sales_rate <= 1.01\nentropy = 0.36\nsamples = 33\nvalue = [0, 4, 55, 0, 0]\nclass = u", fillcolor="#47e7c9"] ;
733 -> 759 ;
760 [label="entropy = 0.0\nsamples = 30\nvalue = [0, 0, 55, 0, 0]\nclass = u", fillcolor="#39e5c5"] ;
759 -> 760 ;
761 [label="entropy = 0.0\nsamples = 3\nvalue = [0, 4, 0, 0, 0]\nclass = l", fillcolor="#7be539"] ;
759 -> 761 ;
762 [label="entropy = 0.0\nsamples = 108\nvalue = [0, 0, 166, 0, 0]\nclass = u", fillcolor="#39e5c5"] ;
732 -> 762 ;
763 [label="20's_sales_rate <= -0.18\nentropy = 0.87\nsamples = 10\nvalue = [13, 2, 1, 0, 0]\nclass = c", fillcolor="#eb9c63"] ;
731 -> 763 ;
764 [label="40's_sales_rate <= 1.08\nentropy = 1.52\nsamples = 3\nvalue = [2, 2, 1, 0, 0]\nclass = c", fillcolor="#ffffff"] ;
763 -> 764 ;
765 [label="entropy = 0.0\nsamples = 1\nvalue = [2, 0, 0, 0, 0]\nclass = c", fillcolor="#e58139"] ;
764 -> 765 ;
766 [label="50's_sales_rate <= -0.94\nentropy = 0.92\nsamples = 2\nvalue = [0, 2, 1, 0, 0]\nclass = l", fillcolor="#bdf29c"] ;
764 -> 766 ;
767 [label="entropy = 0.0\nsamples = 1\nvalue = [0, 2, 0, 0, 0]\nclass = l", fillcolor="#7be539"] ;
766 -> 767 ;
768 [label="entropy = 0.0\nsamples = 1\nvalue = [0, 0, 1, 0, 0]\nclass = u", fillcolor="#39e5c5"] ;
766 -> 768 ;
769 [label="entropy = 0.0\nsamples = 7\nvalue = [11, 0, 0, 0, 0]\nclass = c", fillcolor="#e58139"] ;
763 -> 769 ;
770 [label="30's_sales_rate <= 1.16\nentropy = 0.53\nsamples = 2937\nvalue = [4290, 92, 33, 63, 177]\nclass = c", fillcolor="#e78b49"] ;
482 -> 770 ;
771 [label="40's_sales_rate <= 0.93\nentropy = 0.41\nsamples = 2821\nvalue = [4206, 4, 33, 56, 177]\nclass = c", fillcolor="#e78945"] ;
770 -> 771 ;
772 [label="20's_sales_rate <= -0.18\nentropy = 0.35\nsamples = 2795\nvalue = [4191, 4, 0, 56, 177]\nclass = c", fillcolor="#e68844"] ;
771 -> 772 ;
773 [label="10's_sales_rate <= 2.16\nentropy = 1.08\nsamples = 422\nvalue = [461, 4, 0, 24, 169]\nclass = c", fillcolor="#efb489"] ;
772 -> 773 ;
774 [label="40's_sales_rate <= -0.25\nentropy = 0.89\nsamples = 406\nvalue = [461, 4, 0, 0, 169]\nclass = c", fillcolor="#efb083"] ;
773 -> 774 ;
775 [label="50's_sales_rate <= 0.3\nentropy = 0.6\nsamples = 47\nvalue = [10, 0, 0, 0, 58]\nclass = t", fillcolor="#e95bcb"] ;
774 -> 775 ;
776 [label="60's_sales_rate <= 0.17\nentropy = 0.77\nsamples = 31\nvalue = [10, 0, 0, 0, 34]\nclass = t", fillcolor="#ed73d3"] ;
775 -> 776 ;
777 [label="entropy = 0.0\nsamples = 9\nvalue = [10, 0, 0, 0, 0]\nclass = c", fillcolor="#e58139"] ;
776 -> 777 ;
778 [label="entropy = 0.0\nsamples = 22\nvalue = [0, 0, 0, 0, 34]\nclass = t", fillcolor="#e539c0"] ;
776 -> 778 ;
779 [label="entropy = 0.0\nsamples = 16\nvalue = [0, 0, 0, 0, 24]\nclass = t", fillcolor="#e539c0"] ;
775 -> 779 ;
780 [label="30's_sales_rate <= 0.6\nentropy = 0.77\nsamples = 359\nvalue = [451, 4, 0, 0, 111]\nclass = c", fillcolor="#eca16b"] ;
